solver_type L2R_L2LOSS_SVC_DUAL
nr_class 3
label 1 -1 0
nr_feature 20907
bias -1
w
1.0514432855732905 -0.090553281335091773 -0.96262750402266883 
0.018097260318545492 -0.10517405235382658 -0.024064175523452334 
0.23036180492440184 0.044647950079853088 -0.31073912541846727 
0.26833674714106942 -0.11307324619115844 -0.19415329375925555 
0.074495634958660004 0.051419544830390657 -0.17704094864642345 
-0.13803318610035079 0.028865726330846036 -0.065027964452590403 
-0.02482652084072777 0.0050583259920132257 -0.040348594135595932 
-0.031938708943025466 -0.22419547529730002 0.1359438723816741 
-0.21465459137788032 -0.42988486385543934 0.57137208362089464 
-0.024638467513698623 0.20362323497090196 -0.11432014741565667 
-0.10080060520785671 -0.094552795765617731 0.13250200085401545 
-0.41785727686904717 -0.15399160997483166 0.22639216792235795 
0 0 0 
0.76767640269775927 -0.29720339460635142 -0.62963605281155899 
-0.33669084689995826 0.17706429883976521 0.26099991411722023 
0.0022748669244642469 0.088013561160909456 -0.13349549150942722 
0.020151307270778417 0.0082340562275181016 -0.0065454567824211459 
0.059443828608986442 0.046461961865335438 -1.2538892838674195e-17 
-0.051351002128217957 -0.14191175870427564 0.071565725729554344 
-0.61264921895830793 0.54565708139082325 0.24700184113200291 
-0.0017184068721869089 -0.012564969421095921 -0.023204228887497482 
-0.0093012270057046455 0.50275408492964124 -0.88141576316292669 
-0.61398919089622361 0.31549645493232115 0.15366294494127436 
-0.1090648598961108 -0.14262419789952085 0.086098974288579391 
0.3935310035945539 0.38064744208876383 -0.67869051388531521 
-0.38853357173700048 -0.41363332475924192 0.37324602992381767 
0.44728777641520462 -0.29839716682270651 -0.34500798322782339 
-0.42079830763487158 0.77978083950033428 -0.32052266466621837 
0.0700737476773656 0.096053521831254041 -0.17859559161277952 
-0.089094009369111604 0.0086704031382048817 0.0097788801115227027 
-0.44195058968695106 0.38209692155850267 -0.043044125174871051 
-0.25613386020032936 0 0 
-0.022649344417691293 0.17331258540743788 -0.096889426625326389 
0.0071197608129832581 -0.042929931886478825 -0.052098351191215538 
-0.98398437670474193 1.5674450705361838 -0.80215136190994973 
-0.24070035462254585 -0.17964884385912575 0.23075596714120666 
0.28782472839472933 0.12636591857843357 -0.12575424383404873 
0.49674357232925442 0.46046177337179273 -1.3613590419191794 
0.99098629198284682 -0.5610254952974465 -0.58168953181897465 
0.02369824489988822 -0.051915538466714165 -0.034068104765682228 
-0.69924107379201705 -0.10257271430684224 0.67573428671241986 
1.3819019949943768e-17 -0.23846271432319099 0.16192359479377533 
-0.30123579684350832 0.11778261662187284 0.36881083668454662 
-0.036543944253446467 -0.15604197328801417 0.05186470070096575 
-0.40217732119467042 0.50641275165124822 -0.15337104543123672 
-0.38851052281257303 0.10178392348102747 0.53829643475484823 
0 0.28965031052663553 -0.33293259622922289 
-0.32637384519250556 -0.054569928114480873 0.15212050994506213 
0 0.31630537820081683 -0.33293259622922289 
0.36032775238687298 -0.062794694701951842 -0.18948865664221479 
0.12842378310638106 0.11590361666321004 -0.34659447920352948 
0.12192822458159214 -0.097104192966761316 8.9928060552734671e-05 
0.11810249192872255 -0.21222216960724963 -0.10499618403307577 
-0.22862474284996206 -0.41945089008133218 0.22025720710755259 
-0.048673912563813961 -0.18113529902959613 -0.045752071641842661 
-0.076349424322286724 0.082912787074304245 -0.05543081738536805 
-0.3114482527255456 0.15373370239688919 0.24040591520843593 
-0.21725665077308179 -0.013130473449337685 0.19389161367019014 
0.24945406404502135 -0.14994425996287064 0.048618858013002808 
-0.17350978160126396 -0.41004519202961404 0.096294369749124128 
0 -0.08445761128329965 0.19475059556083238 
-0.44819751829817533 0.50905237847941642 -0.057056313732649071 
-0.16951415460328134 0.11762388173840643 -0.022618201700092249 
0 -0.08445761128329965 0.19475059556083238 
-0.3177735458809654 -0.08445761128329965 0.41328082900338231 
-0.048221236375297023 -0.14163382633089436 -0.015241745570229625 
0 -0.08445761128329965 0.19475059556083238 
-0.061440110257670447 -0.37086798817499239 -0.12623211079345129 
-0.32464982075158955 0.64811775952808692 -0.36986903113048442 
-0.5331500982381111 0.058097610850300935 0.55174313612709303 
0.053956656937754512 -0.37203003986770572 0.11881238739070221 
0.79499783557383563 -0.36596269637107531 -0.7545277086479607 
-0.57119933617541374 0.18970846554119514 0.28871388907921214 
-0.29869096235266868 0.15471959329521986 0.11719002938688271 
-0.061834356599856942 0.027606563546650444 0.0069849820342345395 
0.12925163927465039 0.084008382598219022 -0.13043915856434996 
0.24325690828521337 -0.057394653935764928 -0.14072372739873643 
-0.791749165276459 -0.16766601643445814 0.42081436358880614 
0.12910013184999797 -0.28610854420906462 0.23920175053147194 
-0.11252599833358901 -0.29889311948275099 0.22128355868676522 
0.18573898873152705 -0.35419085790856797 -0.016777218164306835 
-0.0059188266432173512 -0.011377973377867426 0.23365463488854099 
0.29546693737895052 -0.31817637089137357 0.065134007162451754 
0.0072501845271494177 0 -0.083463048026919368 
-0.1361940093006129 -0.02324391394397745 -0.073935961413018517 
0.30817318023254164 0.25751897924917072 -0.39888885307891025 
-0.032479245811198987 0.1778760976141818 -0.33135285578645984 
-0.21132949177954702 -0.068206399172127369 0.20875872417792735 
0.17464395438310931 -0.10324322333462002 -0.050785508198099065 
-0.052527552043221189 -0.58324775267238038 0.34114994433765916 
0.93938608913127952 -0.91233844410501508 -0.84087517778508003 
-0.0020538667953978748 -0.25096022364925785 0.076683934461990289 
-0.12777917161480126 -0.078538748284567556 0.11037795856659333 
0.23968404057270246 -0.12546388202738104 -0.2458734517502438 
0.89713591894271183 -0.47156101193583466 -0.49425753082304463 
-0.26195081482062865 -0.018690518713419486 -0.011474784227811782 
-0.099623289066660875 -0.089160503025270663 0.028227577920506848 
-0.082460968489934075 -0.07519128090046466 0.10124490930150169 
-0.38607911187404065 -0.19100109232636173 0.27050180170203114 
-0.31411736181875644 -0.40123289417545543 0.25690788295019912 
-0.062929918477156635 -0.0051946673010543022 -0.057031298255591577 
-0.057612321186868237 0.13438226558544025 -0.17373819006398891 
-0.057612321186868209 0.13438226558544011 -0.17373819006398891 
-0.057612321186868209 0.13438226558544011 0.10287225026696782 
-0.36659703828539003 0.28490194221539922 -0.0034815352130816305 
0.027811502453115637 0.14412963965193634 -0.11609329498139066 
-0.0089815671930502574 0.045500160505159662 -0.12347325456344457 
-0.057612321186868209 0.13438226558544011 -0.17373819006398891 
-0.057612321186868209 -0.3612528448272162 0.16369132261753047 
-0.057612321186868209 0.13438226558544011 -0.17373819006398891 
-0.5325476835195857 0.18655629737469304 0.3374698952485799 
0.49810247054433404 -0.24750162035678747 -0.21732851348906013 
-0.057612321186868209 0.13438226558544011 -0.17373819006398891 
-0.0033421329715648059 0.094021309350847806 -0.060069016635412087 
-0.81584584471271659 0.68533266179832297 -0.086440181000815006 
1.5252435845704828 -0.52554928020058034 -1.5346770054087484 
-0.067309969741000356 -0.1237188488592116 0.12214336440508108 
0.052569704573531127 -0.26287457922683743 0.038106548236949991 
-1.0544858140776205 0.3135210842046503 0.64285997023411734 
0.17555885957210129 -0.10150285590309234 -0.19516487580930555 
-0.012081157398629114 -0.30833187332710377 0.45009281129237694 
0.33965855862925209 -0.46919094820698404 0.10927225456275409 
-0.13820400647001832 -0.83082194638550333 0.5574839505556749 
-0.2604427922756668 0.2793610850198428 0.22943960278369155 
0.22875078825519937 0.054492965727227026 -0.29808731086958584 
-0.12800149379956716 0.12840697105614798 -0.021098368776339214 
-0.64083990941523183 0.14523901314076695 0.50781741720101858 
-0.14472525367794847 -0.14528914756014927 0.12107269855449905 
0 0.020959608577472953 -0.42495999263904066 
-0.17834240410308333 -0.11146788438005233 0.23936290777751118 
-0.67632302164017122 -0.092132656298453949 0.31208270835306789 
-0.44739982515074733 0.99018801698282854 -0.84437448147568239 
1.0080516872099101 -0.49383638390309648 -0.59071930676738627 
-0.53845798603886719 0.020959608577472953 0.11338323140648471 
-0.52792528959509777 0.16871072082688829 0.14545510663954792 
-0.032228963646478315 0.039840929690900848 0.019207863684400462 
0.11273146994924514 -0.56898894849818449 0.025138346979748052 
-0.56832293984836424 -0.029353888014666304 0.65272815903267922 
-0.74939588681257652 -0.34043089708060043 1.3478949994658931 
0.044036327453184129 -0.13420513714154078 -0.28176082583811723 
-0.3205812560811192 -0.21868213666269226 0.23321421323637428 
0.74706794861597725 -0.14176549951503009 -0.73400140978612227 
0.19859521358140625 0.25762022131490248 -0.57746186354056073 
-0.001581689809005984 -0.11164045555789118 0.034500634651677756 
0.08243978879510791 -0.043812791987037643 -0.054023084944413984 
-0.53961225805999535 0 0.57306577125235247 
-0.18441873162024638 0.35205734688350976 -0.18579335945693712 
1.727377493742971e-18 -0.18484155451677278 0.10712729871327568 
1.727377493742971e-18 -0.18484155451677278 0.10712729871327568 
0.23310150311287811 0.27872640906459661 -0.44002393707474974 
-0.038043729165093167 -0.18484155451677278 0.10712729871327568 
-0.3631202577307453 -0.39716458581156411 0.63083439524971552 
-0.3365465986057089 -0.021723226419942405 0.40826257883786848 
-0.022805874365812245 -0.30188070779595105 0.23059045185236965 
-0.16740878161810371 -0.011196381158929413 0.060620203673036353 
-0.016855747427162872 0.55448950740121461 -0.43499364749657948 
0.4039284835999305 -0.3065010433441907 -0.082863486851432508 
-0.50823849506870178 -0.31222691407827025 0.35184722707199872 
-1.727377493742971e-18 -0.18484155451677281 0.10712729871327568 
-0.29314319205890055 -0.37542832259148767 0.81774441330613423 
0.011310962119602358 -0.099351453690119704 -0.038509880755246063 
0.28699535353733369 0 -0.22811485358302708 
0.48975616067334188 -0.076446240028087892 -0.68778718932142668 
-0.19982368506510309 0.08965969724971265 0.16881489535323535 
-0.022684081243608305 -0.94217521367221224 0.40802045363102118 
0.35490251367705494 0.055153070624753012 -0.30835573482686557 
-0.036687672924072087 -0.15011675608233749 0.09964558731242984 
-0.43526008646237402 0.36731463134965014 -0.057940129206994193 
0.033409453256284583 -0.30906982874211236 -0.023421187452388099 
0.28699535353733363 0 -0.41713725476617208 
0.1191245918767261 -0.69959155192424016 0.39036595740689367 
0.22771103250744179 -0.10646187675523457 -0.24332330297404747 
1.4797967104223171 -0.51653974451878526 -1.4195449681124377 
-0.93782444205712212 -0.099107528244742171 0.71815883688296045 
0 0 0 
0 0 0 
-0.33461507226116177 0.21615836878969658 0.18499842245423495 
1.9512527073056039 -0.8434073024033254 -1.6726448576286372 
-0.080358270523386122 -0.039795412200832492 0.02198265469373013 
0.084155265767120915 0.1343139527974771 -0.2602143481619093 
-0.15396297832847167 -0.11994788952310564 -0.036600364796426685 
-0.1559290067796868 -0.099133182160436137 0.036053635770635625 
0.23176417859710116 -0.1051602848127639 -0.24263994296813737 
-0.35259826116954462 0.016944233966652567 0.31379975517738345 
0.12268159932923603 -0.081016121633896196 -0.56762811488344467 
0 0 0 
0 0 0 
-0.2556318019945284 -0.40847542537546455 0.19852927421791078 
-0.27667329885813968 -0.45577252335456386 0.25282911631496913 
-0.35000571246921341 0.074959680484414259 0.14988266184097826 
-0.234763067010928 -0.14977500865526813 0.29856413649584052 
0.20677420445414624 0 -0.23751201134942498 
-0.61630480916353503 -0.11943827797190378 0.66060890381998261 
-0.21817686210318765 -0.17823402662056201 0.21739765170759734 
0 0 0 
-0.49706401497409808 0.7749358268590667 -0.35193246398717776 
0.097336477354336537 -0.4267384506520967 0.3417552183413336 
-0.55847873259585434 -0.10219019308372268 0.48379667238370516 
0.0058136411974919061 -0.27458482324419387 0.18286068176909553 
-0.49424598621843618 -0.52299145869287311 0.48487513763948686 
-0.018482474794803531 -0.25735738906777417 0.0077769838839151575 
-0.14562478715154034 0.26982963684176531 -0.051507583953732623 
0.24995844008159965 -0.17629595477984761 -0.18196040211340933 
0.89673144839369723 0.35185054253594755 -1.139969405267838 
1.8334005240717908 -0.59919497933406185 -1.8486770013602258 
0.40328658451729932 -0.69079572891865626 0.098920077729367617 
-0.20130410656275763 -0.47785654633569385 0.41590641568780429 
-0.53685584983572765 -0.32497160569359906 0.57166970197124645 
-0.63288548385734378 3.4694469519536142e-18 0.58575595562201055 
-0.34469758056689653 -0.62830008222120437 0.41652530322221698 
-0.0088984963267058643 0.19690013936233577 -0.11823009744573985 
-0.64017552233888797 0.29040485859819931 0.38352733840129966 
0.42555327866143877 -0.33861850995219678 -0.12464720982832643 
-0.32239175573463458 0.0019646985578435474 0.30491202610088658 
-0.039769203826332852 -0.37016724135120443 0.25589024065467919 
0.076208937739660587 0.29789019929626537 0.049933278476627534 
0.53698115089929466 -0.18489183721595137 -0.52361227869727234 
0.096561888907496091 0.56559226804353302 -0.48266525974808122 
-0.50918211577184158 0.4748691496935622 0.11576807653525012 
-0.19438450535436624 -0.076980128733011771 0.18931268411358187 
0.22018169251303199 -0.47296324456284028 0.051898687570410586 
-0.023493535161620671 -0.6427169406367419 0.52190342877560103 
-0.045315770380288799 -0.43442624566939297 0.14250262319988277 
0.033572705736241791 -0.10138961224798337 -0.38708342603258417 
0.19269539682956879 -0.16017250203978073 -0.10813550885604047 
-0.19842826319034898 0 0.19260126349266501 
-0.19842826319034898 0 0.19260126349266501 
0.19218042444451397 0.11413007230274994 -0.15894887896187801 
-0.19842826319034898 0 0.19260126349266501 
-0.19400848990848121 -0.46561650494220042 0.26818607221053659 
0.11303914292978486 -0.087214066305488919 -0.33753638425084143 
0.17529503667406368 -0.14497329135726111 0.14069764590277162 
-0.52587061236435206 -0.077555864801065647 0.41112785156659076 
0.068053428055970921 0.16588112673504118 -0.17154066436590715 
-0.19842826319034898 0 0.19260126349266501 
-0.19842826319034898 -0.040107224781417622 0.19260126349266499 
0 -0.24040000461919175 0.21425251519054656 
1.7253799550142448 -0.78108586584494677 -1.5561075411707337 
-0.060584329089226729 0.022924581113676588 0.052080094443238974 
0.18957376606698068 -0.062511639159863908 -0.28996960917373688 
0.34697244248018355 -0.33405904282576421 -0.43507452457168966 
0 0 0 
-0.20567550648948904 0.37172686344423783 -0.3103328725052959 
-0.27775050606751622 -0.056392629315887718 0.3172442177788557 
-0.24194482856010019 0.32614143764864834 0.18755058186509396 
-0.13091750716772768 -0.043626230044120806 -0.0032228292252939814 
0.03367400956016392 -0.25600532613397964 0.10624441682013773 
-0.071058291102397961 -1.3394159262057266 0.44625476609507619 
-0.015472695933244286 -0.16424801614649456 0.050270394986868389 
-0.48613077134681848 -0.38742892156636033 0.83542192426826245 
-0.57514304238319536 -0.26382367221853142 0.71677018539419934 
-0.17064887265198153 -0.18738464972392022 0.080250228639284771 
-0.23564292687619506 -0.22501615687715054 0.22555702923281284 
-0.06221498918764172 -0.17628872612378538 0.52143134026577098 
0.10316021657052814 -0.51294979824971032 0.38005790335861722 
-0.39279317365392491 -0.16612901238119079 0.50584754431027557 
-0.74408503093760714 0.51059873117519172 -0.23370924675975757 
-0.91677695019460581 -0.22501615687715051 0.88033148395716732 
1.263069642681411 -0.5178087525395727 -1.2008349138461489 
0.074312844916592194 -0.16424863450883539 -0.086468683616927111 
-0.59985023086857825 -0.33957301021920461 0.88195810280456632 
-0.31048154427458313 -0.47944202279261178 0.29125667681182604 
-0.014138544768869096 0.07259470421741257 -0.036769394106336874 
1.3560175636591576 -0.34795697431325046 -0.78808532304636458 
-0.020831742678399 -0.099453928044069315 -0.29081249196441877 
-0.12804172835297542 0 0.12141139796492836 
-0.16728581949896854 0.34543869042886421 -0.065255797350566566 
0.032074159229375496 -0.080097710233452815 0.060701681428686788 
0.31182621318555892 -0.18103212800807703 0.064599392734600178 
-0.12804172835297542 0 0.12141139796492836 
-0.12804172835297542 0 0.12141139796492836 
-0.12804172835297542 0 0.12141139796492836 
-0.12804172835297542 0 0.12141139796492836 
-0.12804172835297542 0 0.12141139796492836 
0.1888826581270891 0.0012807354170867203 0.12504199501451904 
-0.2353112903199682 -0.27489666122913059 0.14127045350549342 
0.081032373391744461 -0.36614927851717954 -0.26124256523549472 
0.11808543097451485 -0.26678294595104729 0.14494675053257583 
0.57765542937590353 -0.48337067832666158 -0.22835894282327077 
0.13928049530350403 0.076295848868818072 -0.050747844175814412 
-0.011614123649855234 -0.35968570240871678 0.13993764006237536 
-0.21248832976800969 0.84535565427385784 -0.72663865753155388 
0.3564431030217573 0.24496152335140958 -0.60465444674961755 
-0.059877434699598081 0.0090944494617366395 0.014836455958210036 
0.43389875974298298 -0.45057047530066541 0.14371539658090063 
-0.094848933661408577 -0.11055998568728345 -0.12840007228564845 
-0.32664912759472714 0.05331779776632594 0.22160246215346188 
-0.029072580200908416 -0.59575459162755795 0.63411881912532841 
0.37489068613619597 0.4082669867617803 -0.53538764112229809 
-0.76135306546862935 -0.124436253965186 1.2392329291136885 
-0.11267237292424105 0.62280474909840622 -0.50039703043298778 
-0.14273857430325915 -0.32314425481173664 0.16653629389771996 
-0.31766273512528742 0.19729995052034771 0.29406773010523068 
0 0.22646135786317048 -0.30147216822550615 
-0.40675076324967324 0.072272286259614862 0.45356055809669055 
0 0.06525922774365861 -0.18294830035754625 
0 0.22646135786317048 -0.30147216822550615 
0 0.22646135786317048 -0.30147216822550615 
-0.034801613191025135 -0.077625263787128029 0.089821425686842524 
-0.074266022504843848 0.070415644035384806 0.026864433914599865 
0.097041241947303389 0.22646135786317048 -0.38353734706782688 
0.12977352912915383 0.30195686275916422 -0.32732372961719985 
0.083531799752328106 0.018891465649905875 -0.18940315354489781 
0.19418351168470485 -0.22785057578985626 0.037074617575947516 
-0.054244710614236469 -0.177393983841764 0.088911018722735741 
0 0.22580113822988021 -0.11475510488059662 
-0.11672258338201702 -0.15981692512229512 0.24270854306111278 
0.34279768411308748 -0.041942841691840455 -0.63311368627618803 
-0.36909183843905086 0.46453407844461347 -0.52009423989760906 
-0.036856121156137775 -0.11177140039015263 0.068824206661882423 
0.23795005313825762 -0.069383837670671342 -0.11840791575284736 
-0.95429169851366236 0.71857136937219557 0.13411592982194268 
0 0.22580113822988021 -0.11475510488059662 
0 0.22580113822988021 -0.11475510488059662 
0 0.22580113822988021 -0.11475510488059662 
0.27093943273718402 -0.073307114256680142 -0.18653257690788211 
0.086464343003470195 0.21059581757052517 -0.2489957711081115 
0.069730729056667315 0.045705089105883293 -0.21884473921857253 
0.059162249663495627 0.24957560577611831 -0.033112244083501011 
-0.12221018191794943 0.17266460784788948 -0.12076131523480245 
-0.19604253486243034 -0.12490098029528686 0.21489907569536967 
-0.018640282832680929 -0.46706934287360785 0.013108064925749291 
-0.2494512555583176 0.33494829346161431 -0.04873851280236393 
-0.093732510664479921 -0.24253135368157919 0.14707093518488834 
-0.3100497536248118 0.29661469186166978 -0.21784024490492152 
-0.32965648834246847 0.437593236836675 -0.30775374631379848 
0.021905876617901499 -0.10683580901779136 0.03285810675186112 
-0.36449505815724481 0.29670800443889633 0.30510286961893207 
0.06161752105629259 0.091084320910705285 -0.11143927752002356 
-0.20371263250625449 0 0.017934571199589397 
-0.20371263250625449 -0.20337666262665732 0.4623461286216905 
-0.08237558928004482 0.066535681044050707 0.034874408863923671 
-0.20371263250625449 0 0.017934571199589397 
-0.16884850589402586 0.11178285056456837 0.097533805320154224 
0.1421923330867963 -0.3078112961318662 -0.23520301448209036 
-0.048600237376712596 -0.25602974243963073 -0.064323074612858688 
0.24144440524434393 -0.1593629071191856 -0.12226739261408005 
-0.11152635187486899 0 0.10380701140996752 
-0.11152635187486902 -0.14604634925640012 0.33843165911999823 
-0.14624714162720606 -0.090050571686200703 0.29456799795364291 
-0.11152635187486899 0 0.10380701140996752 
-0.11152635187486899 0 0.10380701140996752 
-0.11152635187486899 0 0.10380701140996752 
-0.28902017641299199 -0.22600173976907012 0.23070834073180219 
0.42304896258217989 -0.17259123675736324 -0.22796270294251342 
-0.90974775193872548 0.18592965930055771 0.73946544537840153 
0.014827795062332522 -0.39930637571201388 0.049340977568901982 
-0.22531321246839672 -0.039878452783471366 0.39584516226524702 
0.53003041267241902 -0.38395334764426259 -0.2729630476469545 
0.27071949882878965 -0.1609224739260062 -0.22043519106606693 
-0.26539967456485253 0.62406859788479507 -0.057423121149454012 
0.21887254450613963 -0.016268205595522604 -0.20478594645595802 
-0.066432756107692947 0.204864036592801 -0.14784409773037793 
-0.43781302069223449 0.089546801810809318 0.43177780701607038 
0.011814077425515388 0.66078130327029905 -0.73397256944912359 
0.087754648920363457 -0.11150433592986289 -0.17809998135646529 
0.0095085631313204244 -0.17623570267347224 0.0010314871169448349 
0.2266708334501808 -0.1687374657700195 -0.14065756583684483 
0.26499867726753745 -0.16873746577001952 -0.093759921307874 
0.11584349490690837 -0.1687374657700195 0 
0.11584349490690837 -0.1687374657700195 0 
-0.34059546825496406 0.31324509742654161 0.14231351419848456 
0.46009489491928574 -0.10356804359372081 -0.34866713675000305 
0.11584349490690837 -0.1687374657700195 0 
-0.44375915345834799 -0.021475591139012165 -0.053427042950216587 
0.050536400036839943 -0.092834113966738241 0.016945632520417662 
0.11584349490690837 -0.1687374657700195 0 
-0.13171726410170323 -0.16417269678431051 0.34818457707380401 
-0.10181872632419929 0.11648248451633808 -0.35138114220074218 
0.2535945536379996 -0.08345943627100183 -0.235492124083341 
-0.37489853963694375 0.29850075408617005 0.70295126773903949 
0.22111153649950832 0.022140181357918107 -0.31804027262113971 
0.2535945536379996 -0.08345943627100183 -0.235492124083341 
0.33602280506970483 -0.26030451532148713 -0.31046966890555328 
0.28870649526763081 -0.037674776081162147 -0.24227961285046876 
-0.12864697481686538 -0.022652745492043477 0.096712559564337983 
0.58889943602349026 -0.23848919291100226 -0.36524158605129486 
-0.08824130228771622 -0.14338455056067037 0.036972834186979525 
0.076941314939865085 -0.14338455056067037 0 
0.28164293478552876 -0.11262064068879676 -0.57492895086777995 
1.3291299531929524 -0.31181932190349737 -1.5345350479425135 
-0.50641464179932394 -0.20595405657995078 0.53307271005393964 
0.10440433597350755 0.32919854859623676 -0.45337748229949937 
-0.19264651308310071 -0.14338455056067037 0.11429741281683969 
0.076941314939865085 -0.14338455056067037 0 
-0.43785046770937597 -0.10868969891595474 0.68991117853542583 
0.26869676506063583 -0.16070066545975606 -0.29779732473808707 
0.23331291208446125 0.01873458086446872 -0.4543171647644299 
0.076941314939865085 -0.14338455056067037 0 
0.076941314939865085 -0.14338455056067037 0 
0.075789594547773786 0.073635683716119893 -0.25155396160139321 
-0.070074949196361938 -0.27626435503328606 0.10372650714341114 
0.72426697171374066 -0.013865436594131184 -0.53103763880505372 
0.021519713812804899 -0.1229225386994494 0.16428602506697562 
-0.26034464358578829 0.17745651352309935 0.12144669256098259 
0.32574596702369418 0.12756900715833749 -0.78549570913121702 
1.7537172800344492 -1.0788065235194986 -1.6048049259064754 
-0.43218290240624624 -0.038244294172715187 0.20022815238855915 
0.41906818327139977 -0.22031870717850022 -0.1714432733258742 
1.3736843931914449 -0.36722099518764312 -1.1058975872555579 
0.084028620426882597 0 -0.19234662558175356 
0.084028620426882597 0 -0.19234662558175356 
-0.20111675293293266 -3.4694469519536142e-18 0.22613556644550675 
0.292699092569917 -0.39194068155144751 -0.041616290833517942 
-0.207112284506139 0.077422313066631221 0.25298796321870293 
-0.09013245862374264 0.053602561845466017 0.11732590592640312 
-0.10785075231412843 -0.50591837213954594 0.23666186883047854 
0.24567477036774796 0.55173522578539314 -0.45853277469853426 
0.55757109153253426 0 -0.54959406873843253 
-0.27233653618228459 0 0.24814760678152928 
-0.39703137632407531 -0.31874932926021138 0.3964565011801976 
-0.27233653618228459 -0.090656066289422299 0.26051367767946798 
0.40654604431047436 -1.16468834383639 0.076110153221405408 
0.16296306065824095 0.19118548721876047 -0.68922339227360496 
-0.27233653618228459 0 0.24814760678152928 
0.039041361476034833 -0.3518985888145455 0.2623027337266382 
-0.27233653618228459 0 0.24814760678152928 
0.28544195024542129 -0.18480182714366719 -0.25550274095387349 
-0.45847305220208501 -0.10756712654571243 0.42876136829710343 
0.52898229065192615 0 -0.3272389808286541 
0.040330637070218299 -0.11967757026855075 -0.092770207466017149 
0.52898229065192615 0 -0.3272389808286541 
-0.36350826270788489 -0.10403600991877635 0.35185889205867099 
-0.0085946815583760258 0.41542596890746353 -0.52255008327239583 
0 0 -0.15682988890013871 
-0.46570316089178809 0.33621204094132739 -0.12335929997416929 
0 0 -0.15682988890013871 
0.23563528541196446 -0.15075561950676203 -0.23031221035686689 
0.34965701515310393 -0.13589746245322665 -0.11564451283982463 
-0.20222735444264042 0.1595588966096296 0.1098453067815217 
-0.33561361631598596 0.56830939383791024 -0.16073198516464654 
0 0 -0.15682988890013871 
0.025205972451789301 0.14987313476415068 -0.032388633242587707 
-0.18747397303245564 0.81259033846482742 -0.59982456956553531 
-1.0691428776045433 1.0404238862300654 0 
0.0057595522636654413 -0.045028701058512074 0.056748826750895799 
0.128675564481187 -0.2021135287894793 -0.10698417650595919 
0.18429159017141097 -0.20211352878947936 -0.11902587717110324 
0.14556139707678381 -0.24883594210685009 0.20058714113913617 
0.097297949899025765 0.053212221423094841 -0.071144239068290441 
0.4079097164913576 0.12323926078765646 -0.17545175544599328 
-0.2911876549932379 -0.48904619154935225 0.42344820393142524 
0.15863049950374372 0.08839967326417314 -0.26793430320465617 
-0.027892747795501223 -0.45614686636982926 -0.06430713507674013 
0.034187642057947422 -0.37791275131504426 -0.075825830669617705 
0.72504092940062814 -0.058115835204583702 -0.62382153448673539 
0.31887953947675024 0.56468781132360424 -0.95479028494766194 
-0.082275322238875306 0.21044897480500457 -0.076852581750602264 
-0.27394265203770429 0.20390285115689763 0.15111577212376928 
0.37949177111564952 0.10416596917740505 -0.17463546221647983 
-0.12871032650541467 -0.1318386641305837 -0.065064820878671228 
-0.4811857275981069 1.3783621722176225 -0.78404754056056969 
-0.56757525677253418 0.3922195307785421 -0.16617196605856363 
-0.29622787154670654 -0.22990735669889203 0.14016125129777085 
-0.50624525887959071 -0.28458192983540531 0.62977361766167561 
-3.4547549874859419e-18 -0.066032886979773067 -2.6749638055838285e-17 
0.13567592904431297 -0.17336633130037821 0.038526059896076305 
-0.51831972314156971 -1.0191500421363742e-17 0.52722190425956239 
0 0 0 
-0.017107158394597109 -0.066032886979773081 0.058115699286770982 
0 0 0 
-0.051673562495106046 3.4694469519536142e-18 0.085454078436692824 
0.03381180114114346 0.029947033052964384 -0.3246463581149851 
-0.10400498881320269 -8.6736173798840355e-19 0.1114017205364282 
-0.24048649824954643 0 0.1450834663176605 
-0.26290544729176374 0.24497505907068506 -0.31441355946173472 
0 -0.061930567499871608 0.093356665417862791 
0.21627619918251345 -0.23183463709205504 -0.16820291027682632 
0 -0.061930567499871608 0.093356665417862791 
-0.6437559509469436 -0.016895297482228462 0.20091673759819426 
-0.44370954578176675 0.089592582839986265 0.32582739853321674 
0.34218602663623898 -0.2071540164154787 -0.097379844879544875 
-0.15316104526455501 -0.15692511211180424 0.52057066872170543 
0.22521059280997732 0.22050594183287739 -0.20538489881001248 
0 -0.061930567499871608 0.093356665417862791 
-0.30815774300200083 -0.15420349705854722 0.42429844373778919 
0 -0.061930567499871608 0.093356665417862791 
0.33109667580141494 -0.023065665024335564 -0.24326356731956325 
-0.038519436662631031 0.07008976173479653 0.03366213240829475 
0.5500025498081399 0.074923810739542129 -0.51104560110064079 
0.66340980262405391 0.035998949511401798 -0.62211999244634986 
-0.15434988406700995 0.048680620214392629 0.13571882841051205 
-0.5692772321549624 0.30991015717829429 2.6749638055838285e-17 
-0.56927723215496229 0.1522489900242682 0 
-0.56927723215496229 0.26106274376340505 -0.28498638715054286 
-0.032728784870392276 -0.032967515620506725 -0.011014914805480305 
0.29130767342146691 -0.14631277407240342 -0.34322010661251118 
-0.25018953144872963 0.17991952909762077 0.11404389949243794 
0.18199099828998785 -0.10554921366725264 -0.18045279649656834 
-0.26783511564476747 0 0.20106223464649087 
-0.26783511564476747 0 0.20106223464649087 
-0.26783511564476747 0 0.20106223464649087 
0.36738854991577147 -0.35433201722406293 -0.066511160911800538 
-0.26783511564476747 0 0.20106223464649087 
-0.26783511564476747 0 0.20106223464649087 
-0.225118545878771 0.089704741096099425 -0.13771214762779257 
0.30413296320701538 -0.26422943857119796 -0.056545438474924381 
-0.26783511564476747 0 0.20106223464649087 
0.14518762926238293 -0.11244366269067341 0.27616562222333219 
0.39778008910145751 -0.48249199774555129 -0.3073644966950721 
-0.42154568740896986 -0.37036163676763556 0.4143346938298535 
-0.055509581800021288 -0.18885740547803775 -0.013238912271270378 
-0.49278312486634007 0.36415887364070776 0.051979565910607886 
0.33324456894599397 -0.19168204134111799 0 
-0.3792271723899987 0.16814298319438464 0.33573941063624008 
0.85548322918822761 -0.095110676887336418 -0.96177512091825457 
0.63237416074315311 0.14826420884909189 -1.0498897296354712 
0.92474267411655342 -0.65251550729496355 -0.20877253228521064 
0.021840178928131126 0.20426835394430165 -0.16575076112527293 
0.24166787007343937 0.15679861266551545 -0.087418115802849819 
0.56222969303659354 -0.40102478809717657 6.6874095139595712e-18 
-0.18569019088099223 0.20010823357598717 0.09086172264175145 
-0.28251527819344346 0.61083647493742121 0.22266264832395968 
0.15515231597948553 -0.17734851825573128 -0.20898351709477583 
0.30366609572648884 -0.56631957440047254 -0.084086605447456983 
-0.4725334852438256 -0.1162924093033625 0.20039625203326161 
0.114894434945731 0 -0.20444986553007502 
-0.14323208646055233 0 -0.20444986553007502 
-0.17236290365576709 -0.16482937409411844 0.1622182022087669 
0.1793408325715764 -0.56482476628209788 0.065197828876458822 
0.47377218593272796 0.026046982714256102 -0.53407663097378322 
0.114894434945731 0 -0.20444986553007502 
0 -0.044428573603756488 0 
0 0.6081374653419318 -1.0803393520574784 
0 -0.044428573603756488 0.022206953215513608 
0 -0.044428573603756488 0 
0 -0.044428573603756488 0 
0.36085841113416778 -0.075849614661282497 -0.54879368744313872 
0.20183385558016265 -0.083892592648498313 -0.23918336811312643 
-0.16216088024303019 -0.22598613885751173 0.22926597416707084 
0 -0.044428573603756488 0 
0.39043426017353522 -0.53453608860916502 -0.25469433762821642 
1.6009746504676265 -0.51554857210614968 -1.2236841744543134 
-0.54756056984868029 0.32439417080834898 0 
-0.38700226939256172 0.40719853846255205 0.17297006728867512 
0.0039366488800065122 0.23648903688487188 -0.30088577708444092 
-0.54756056984868029 0.32439417080834898 0 
-0.54756056984868029 0.32439417080834898 0 
0.011160797550591474 0.18653103507333355 -0.25518383746880924 
-0.070660492208791073 0.048999868934788714 0.089673404686592642 
0.35639786360707199 0.14627872278049164 -0.35651548486210133 
0.25045266732207655 0.1110657044055601 -0.76038158496437058 
-0.088269813612569914 -0.30310124840294561 0.21474916008025544 
-0.16341845417433692 0.1239833701217276 -0.4069206701571686 
0.47902586065371688 0.21415939339408024 -0.63649626307377727 
-0.48998484597706543 0.15650637858982858 -0.002822950089537331 
0.43859938379944496 -0.3114008632445785 0.036978304355947435 
0.34205539251166645 -0.16459407279026195 -0.28005093763650601 
0.007304603007355857 -0.30083151266241165 0.18471672017826626 
-0.19807206407459629 0.083410219769597588 0.0013606955755105553 
0.59663680884160586 0.047363124059159198 -0.64233570597473999 
-0.13868084671481234 -0.025816325784100338 0.26924580928401043 
0.007283649327227003 -0.17094281044961065 0.1838896161217036 
-0.02235251110276577 -0.20669758216924938 0.096195799638920276 
-0.13868084671481234 -0.025816325784100338 0.26924580928401043 
-0.30543759038357321 -0.025816325784100338 0.4895364438160375 
-0.23382838336329911 -0.025816325784100345 0.021746952415702337 
-0.3038174394700543 0.1455574920025226 0.21364475066473626 
-0.10145076174761804 0.32284258474575606 -0.052026422289654872 
0.43422888104617391 0.28406774260679485 -0.78089288943643698 
-0.34087740525460136 -0.52429543957914748 0.62776136993291376 
-0.41787193600277528 -0.58414609977711496 0.49907310303984703 
-0.37380610742710402 -0.50178173504420687 0.42791852356376481 
-0.15279284771166693 -0.12180449078595866 0.17542583011246196 
0.17415495119718016 0.26926493478160057 -0.55780199469521341 
-0.076278495056211967 -0.057571088823646817 0.061848683840651175 
-0.24819009518818 -0.011998101343098311 0.35105639606838407 
-0.24819009518817997 -0.011998101343098297 0.29604164822809526 
-0.076472936831231311 8.1948213147921278e-05 0.10288292413574969 
0.1467712767441039 -0.026204197118086976 0.037419944497845484 
-0.11209446221477648 -0.35881037399119114 -0.011218324616514456 
-0.038737197010645215 0.50905076584623699 -0.57170271272011564 
-0.16326663196394206 0.31397354202790351 -0.45752401114571239 
0.053602840829164146 -0.15797209524623665 0.20817370396165868 
0.14927995006656811 -0.47147638313691842 0.31925750013500626 
0.065896153244808867 -0.35376279535417648 -0.078239566293164031 
0.012907452013862805 -0.17859883652678954 0.21278862818753114 
-0.24819009518818 -0.011998101343098311 0.35105639606838407 
0 0 0 
0 0 0 
0.19240097404773526 -0.13712852162655442 -0.14584555936699203 
-0.05285410329254675 -0.037937573713520661 0.13456348604744617 
0 -0.29335144632022914 0 
-0.43073452720908889 1.0773949708889674 -0.71276455451932208 
0.82358562672049129 -0.2415288595845132 -0.77137960595884125 
0.55515173390036421 -0.61782588455946996 0.21674274950107902 
0.42490516050564253 0.32887396223774468 -0.73806390613490791 
-0.2213230291720252 0.21315076937443389 -0.063488147122893829 
1.4116935124361869 -0.97124048383353667 -1.1274922122261977 
0.25157008936267256 -0.29720463200443209 -0.31680952473044593 
-0.20587378772392631 0.34178111553704854 0.020356314607998222 
0.11474205580997175 -0.092272929558675706 -0.14132800190384046 
0.30081793004653784 -0.069368570615909481 -0.017006449503245289 
0.028192741222603086 0.44259305389433523 -0.59665472600409319 
0.34810975863367377 -0.13447920039968736 -0.21947698594984558 
-0.23297381151194552 -0.13022722947435644 0.41946950663922294 
-0.2382457412876286 -0.17211975831192855 0.32122003330878379 
0.7794063899817093 -0.34760512879568284 -0.72524507286899131 
0.028192741222603141 0 -0.12278092578236512 
0.39555559125851208 0.043080814925195873 -0.45548365093876592 
-0.37555963476958593 -0.068980507918003683 0.4580685135160743 
-0.27054308659291942 0.0082437000523783548 0.41619835632865126 
0.29982992520811796 0.070086272255277846 -0.22093936992318677 
-0.37555963476958593 -0.068980507918003683 0.4580685135160743 
0.093060295962709663 -0.044808667740411215 -0.44637476671871834 
0.35373299697242455 -0.50334510019769874 -0.050286150005165099 
-0.11687574769330478 0.11712819288379771 -0.037296721384513828 
-0.55061801651820119 -0.45451163655352367 0.856751656954999 
-0.060539198960957205 -0.14470890512339663 0.087198296749029333 
0.0057292501049672337 -0.61001861390833312 0.31211503681356345 
0.064572233804183046 -0.0032317384543332356 -0.063681522854407022 
-0.4543817688631725 0.12252687077020968 0.097818874097389832 
-0.0043151687061031589 0 0.35731866941474266 
1.0266649664280496 -0.54693676338284991 -0.65915959634701238 
-0.082444279140320209 4.3368086899420177e-19 0.40232979163183297 
-0.54740415974224443 -0.13703141126287299 0.61942461810718419 
-0.47503376287468402 0.087831047157360495 0.55482630479133832 
0 0.13822896060431789 -0.28406374241433169 
-0.25026269613303431 0.48786174570042629 -0.3085284863972837 
-1.2123305030061011 0.23263880856040337 0.40423632471253435 
-0.314112246880969 -0.25332095974573665 0.45087539371621849 
-0.34433570088551518 0.60552547588321615 -0.79896547160025777 
0.15897501534552191 0.13548976245887945 -0.17671161767472413 
0.013143560770438515 -0.46939730586723261 0.32007113272588467 
0.1755600620050235 -0.036679565354507844 -0.37136399280572607 
0.20427080943180517 0.72547119813585681 -1.0968602112711021 
-0.6498184097458215 -0.012085724625435182 0.6407629005119132 
0.24356115379123802 0.24332128864005995 -0.29902848153718387 
-0.70887238882354109 0.43923186374181972 -0.53777880192853744 
-0.24165522959910021 -0.45043342644155215 0.44203752771989346 
0.38504517950849326 0.36595113168476734 -0.58804866581824311 
0.46228988634871354 -0.14947229714029223 -0.17457018942023292 
0.23368719505652136 -0.83310191337086792 0.070549324412205003 
0.46228988634871349 0 -0.17457018942023292 
-0.27489656613176094 0.14125934715421448 0.2535982551685243 
0.51752689406903762 -0.19477853270697129 -0.4277072273652357 
-0.086487418159833865 -0.15186670550726303 0.091302895381663904 
0.15561143083731716 0.043114720363718467 -0.29906438256510148 
-0.080147376076256993 -0.019922068882972675 0.15103407791650997 
0.46321028262145697 -0.44153660941958039 -0.21302320133852662 
0.51829150638722266 -0.019224822205301376 -0.56041006724963682 
0.38336718327766628 -0.17948705844144736 -0.20289509750758788 
-0.30622724088702713 0.15431670803598074 0.045114898554513991 
0.25919555476215911 -1.0463423185097449 0.83752204180781908 
0.098943902883217028 -0.11801155713670422 -0.06656972068433141 
0.28835225575625179 0.11448351638850693 -0.68418681104295265 
0.084137493889505463 -0.3109083454036195 -0.0012927231670492073 
0.43502860829942192 -0.17247076621473789 -0.18267571211212472 
-0.43396577773323736 -3.4694469519536142e-18 0.94656996441107732 
-0.24460743582185809 -0.30382239703474789 0.43666002667715081 
-0.023407579763594435 0.19896320241457466 -0.26662296884598274 
0.3225433953313 0 -0.22934772149002275 
-0.38854002802464432 0.11301865060864091 0.19794276072173994 
0.0015520777961678036 0 -0.10866916552965739 
-0.35862655123472426 -0.18479856153887292 0.50515087973433448 
-0.33823205620254415 0 0.078932443099545752 
-0.18558130326036593 0.039138464787680946 0.28486390653450022 
-0.36851268548327665 0.2804259753167952 0.42736020680499381 
-0.33823205620254415 0 0.078932443099545752 
0.697212655424852 -0.4957404607985858 -0.17320982222960404 
-0.49983483493493391 -0.144265804654857 0.520009658572682 
-0.67405399452991155 0.22774826265907261 -0.41295901632421755 
-0.0061756985378856148 0.18090465600728634 -0.48587813324388968 
0.044810080665697846 -0.024881848511713225 -0.13887453431624491 
0.17606329897517861 0.28252586815945685 -0.5615499738319677 
0.8890374008854296 -1.3877787807814457e-17 -1.0654155955891103 
-0.1499660386688374 -0.22962774699844457 -0.045819042613049761 
0.025536611547066018 -0.051081194592515422 -0.035464537364814801 
-0.11667629755098384 -0.39568081892100404 0.14208851652049759 
-0.24041954630278517 0.10003371454281557 -0.026876450262978743 
-0.28552080578340466 0.43858640599147225 -0.31342934771274783 
-0.21938714638415899 -0.077306608180900613 0.17953605041070275 
-0.35080631510431887 -0.0033703559442006311 0.31288110832369281 
1.6539630111484938 -0.26241218945663297 -1.4524406675112909 
0.40886923824009697 -0.13040403153380198 -0.33519800094986257 
-0.032589126812576114 -0.17185872220556558 0.30095900074198789 
0.12944472999247192 -0.38495072083529541 0.18632226941647545 
0.28840008810773565 0.00090483735356665894 -0.27344153894054513 
-0.12510784427542482 -0.14028371693453334 0.11468338806907584 
0.13470381985509439 0.060926105640143502 -0.13220494619579334 
-0.15380341474204692 0.001604204974724948 0.10232176431743426 
-0.53315624848126575 -0.19829934401804997 0.63640103940778425 
-0.15599960883443129 -0.22697957261746843 0.45763508623483684 
-0.13265671889123412 0.64323971427597071 -0.54356005608900626 
-0.31476874248616332 -0.22311099692209124 0.3531884448413003 
0 -0.18794283739570544 0.16857410514908189 
0 -0.18794283739570544 0.16857410514908189 
-0.50260388256725774 0.99147043052557537 -0.67047532583855041 
0.64930701025628523 -0.67615433103963019 -0.27072369405389024 
0 -0.18794283739570544 0.16857410514908189 
0 -0.18794283739570544 0.16857410514908189 
0.38346991557749277 0.035118719674314798 -0.51877102259912156 
-0.365907940716519 0.41514789964766269 -0.06767264607616813 
0.39301634767559251 0.098789966555937234 -0.30000524716991334 
0.18630518047811118 0 -0.29591021285053598 
-0.63198659749225716 -0.50273405288849271 0.72786654415418883 
-0.34183850568375723 -0.11358824396696884 0.56231820560882806 
0.078148203677961159 -0.31169479771467146 0.18039363449370954 
-0.46799749592963807 -0.63978062910488553 0.77675965413799697 
0.18630518047811118 0 -0.29591021285053598 
-1.0364395787535634 1.0791591263215161 -0.82485148023048727 
-0.41416909501843241 3.4694469519536142e-18 0.23055158067506212 
0.15287509366244037 -0.3346673382981139 -0.10045266056066342 
-0.12827147537371858 0 0 
-0.12827147537371858 0 0 
-0.77657857741052461 0.96568228234638775 -0.55185917721072819 
1.1971524173640162 -0.48164158418970154 -0.75823924227459782 
-0.21033606412966199 -0.047048814142777111 0.42627279156466352 
-0.044407024629315853 0.23059429120262287 -0.20047507251622779 
-0.45514026232187499 0.071988427196444507 0.66768758788767213 
0.02895240361980931 0.069080686963029228 -0.33747351391648589 
-0.34269055144720967 -0.52509683065044443 0.30935097837990905 
-0.37048214437550103 0.026027456187884723 0.1681393844683971 
-0.20976256933188142 0.77989707959388976 -0.71392002845633173 
0.52165246615641281 -0.26623693086737577 -0.33000097396380618 
0.46256327466961522 -0.28203808368752875 -0.44887748889451162 
0.16451939093726345 -0.53170803960129431 0.098295522375667244 
-0.42449566475706108 0.33775793629570733 0.32670696953177364 
1.1187738144328105 -0.59435265653815517 -0.10701705943588365 
-0.42192025015302054 0 0.66084665929822906 
-0.42192025015302054 0 0.66084665929822906 
0.37533452160184538 -0.23663426561755316 -0.31410285178279285 
0.068305870722143822 0.44339130285004186 -0.39670355810427232 
0.059837083993430788 0.11016773999956948 -0.0675321069342983 
-0.22659536085236021 0.021554316862599621 0.11981703337932151 
1.3787186516886953 -0.75254789236383457 -0.56875471082470852 
-0.31608905776780943 0.43062736756293535 -0.18217951896029699 
0.26415136242417164 -0.07481495660515719 0.070371287822828907 
-0.41098324500445671 -0.29231790771324384 0.10528011602624578 
-0.15912142756673059 -0.45061928732825618 0.34957224486682015 
-0.1857956111067279 -0.085564824234545478 0.12212701685476379 
-0.056873206520944054 0.054238716707389778 0.093666723584346592 
-0.11385674409258639 -0.49646169003161988 0.61971952735788938 
-0.18193919059702382 0.1050963537059498 -0.54995854171520198 
0.35756626491211024 -0.42517831024191394 -0.14599674524107725 
0.25556298468086963 -0.1076453641427558 -0.1171632402488295 
0.022921585495295004 0 -0.33756326566647216 
-0.27034428116311837 0.20469881359707873 -0.097433333146565992 
-0.39581458589979279 -0.12002511739895344 0.63084248524384823 
0.32409926350876078 -0.20234920906874371 -0.42108370411656409 
1.3366487451989155 -0.34507779071499933 -0.89787220659376665 
0.5587994382462218 -0.27838409557959493 -0.39645388109624891 
-0.082135977891228035 0.55920259930913541 -0.42234021535711663 
0.098034326864303079 0.063322721065779367 -0.18296722455990841 
-0.42636500722700382 0.14017030789065668 0.18659363684624869 
-0.13801548488260384 -0.098452993837613953 0.24567211893101151 
-0.27125605744552378 0.31464505942682425 -0.16676910542666695 
-0.13772252083997408 -0.19662320297325581 0.59318699388132767 
0.055847629980317906 -0.056088654572691445 0.24717893001345967 
0 0 0.022206953215513608 
0.046317001053909901 0.034724169486039007 -0.039983960658675814 
-0.233020065059557 -0.025430634840947 0.059669354965066278 
-0.34929350872753506 -0.15088796099015173 0.38123409443838674 
-0.78721280005611594 0.67986590816426151 -0.59271070529137793 
0.3024383262255117 0.083373575886086362 -0.42456144689418612 
0.11161507078391841 0.037619851736457655 0.049322479514274015 
-0.49363018104857209 0.29202234227497509 0.25364626125178219 
-0.17097105994790804 -0.61006374555606979 0.3521234288755869 
0 0 0.022206953215513608 
0.38173773908069963 -0.38299201875719624 0.13222864572983639 
-0.72639227628508873 0.91591019861579848 -0.31807511760147045 
0.09100410182423091 -0.25311014480607813 0.048613844917439371 
0.43717231137753859 0.1055547947012164 -0.54538420454617365 
0.34790582972724909 -0.014163201861990677 -0.012151450550230669 
0.12660733759058385 -0.38681537797722876 0.26570232846536967 
-0.39999593019185997 -0.26814898789293662 0.35283531279277169 
-0.075062861544263185 0.048193209310855384 -0.02882409975757623 
0.10767486789437625 -0.043113738463165074 -0.065216629366888254 
-0.18683543884844631 -0.088990103037742754 0.23308159351482785 
0.24097343424245177 3.4694469519536142e-18 -0.10808586701999756 
-0.027439259422765972 -0.24137177061353662 -0.16405499030513707 
-0.12697398140412305 0 0.30215061765951207 
-0.18105402365476128 -0.071994088945976226 0.26123187746546239 
-0.036441371335572161 0 -0.46787116799544365 
-0.42279529314227166 0.59478361781545808 -0.13913564937459996 
0.1017414155267258 0.73054482351240657 -0.48125441678319691 
0.23501145768481371 -0.093603129541333582 -0.098658752034840036 
-0.17563283731108395 -0.35806846560748412 0.57317930070270739 
0.0076946954509047099 -0.27656889667329559 0.30842910881116931 
0.46368582854673718 0.12398404752455143 -0.81260311202610036 
0.48225805865274357 0.11660103936212032 -0.57355584031603912 
-0.1920307372326632 -0.043952306640159207 0.1407230580082251 
0.4209743835367345 -0.12294437096407389 -0.20247040968042931 
-0.35961921126427138 -0.12294437096407389 0.51110744605816727 
0.10956969347150726 -0.18294883840351542 0.10740615634156969 
0.4209743835367345 -0.12294437096407389 -0.20247040968042931 
0.27629201306729467 0.006482166841468481 -0.19584655707691689 
0.0087982743755875767 0 -0.047919803555134359 
-0.18289215194660693 -0.26336492910441744 0.51568895252368285 
0.030809121912553958 -0.11361994577546625 -0.054949505949924524 
0.084668996633504245 -0.17075557940598096 -0.078972843392488834 
0.14168147609938136 0.25398812788214425 -0.22487781767955503 
-0.18289215194660691 0 0.27822301207921674 
-0.49199421033202922 0.021809087779471412 0.31278212576722042 
-0.18647646251845129 0 0.23581002773445986 
-0.17486018394931979 -0.49079165294870586 0.23787716186646601 
0.04963756863000237 0 0 
0.16040260622349681 -0.067434292453028857 -0.11600489150653326 
0 -0.23057426158416922 0.11386596571534657 
0.077655402433792223 0.04523180684931187 -0.29467767747257356 
0.1983372101390164 -0.26824589110998143 -0.039409019840301464 
-0.6497597131969739 0.09316125893669977 0.56015742527531232 
0 -0.23057426158416922 0.11386596571534657 
0 -0.23057426158416922 0.11386596571534657 
0 -0.23057426158416922 0.11386596571534657 
0.0038068919224615878 -0.23057426158416922 0.11386596571534657 
0 -0.23057426158416922 0.11386596571534657 
0.052071012071016186 -0.67497037950250394 0.42367825786545771 
0.92967208411665869 -0.098246700781856433 -0.64119503505528108 
-0.58627719637034192 -0.39387222057332938 0.67061384207536223 
-0.35261499704867572 -0.074647399769068062 0.50621507104767671 
0.031263096107583925 0 0 
-0.05369570193863956 0.304755303098241 -0.33034498145135066 
0.031263096107583925 0 0 
0.60066214126536843 -0.12388875163000107 -0.48414702107830027 
0.031263096107583925 0 0 
0.16703244335343562 -0.027764779479121149 0.0056509358049006359 
-0.039336029592078547 -0.01670818262335437 3.3437047569797861e-17 
-0.64431565064045659 0.15655625194320436 0.41837600184388313 
-0.039141458600799345 -0.34945079380397548 0.36578127776099978 
0.55797999533267351 -0.12331635194364465 -0.3302861143124976 
0.33775121131946845 -0.45125967517103477 -0.065372828565943092 
-0.16929931518930827 0.31035105020741915 -0.17492124684577701 
-0.13127515895941402 -0.10064545191765811 0.18426150433472918 
-0.12200694506687645 0.32010490251618701 -0.12453593551717973 
-0.21950539026298305 0.16338192172374372 -0.12077530390128435 
0.16350338829132086 -0.27734024756599113 -0.22750182005547531 
-0.15664210109357407 -0.21554843937029525 0.40624857219154337 
-0.1800421640459369 0.083276943875364787 -0.040036278215512477 
-0.17877220178297781 -0.10491371034489359 0.50047732835783709 
-0.10257483190123129 -0.21948900649086278 0.22436245929286011 
-0.20643194764063422 -0.31483027479431797 0.78099370311418737 
0.04583731279456775 0.0085031507321075561 -0.19945852794529467 
-0.1025748319012313 0 0.031735761388753336 
-0.021150175453750204 0 -0.091407672754013694 
0.065031325022886263 -0.22060700455509072 0.17726642047171881 
-0.1025748319012313 0 0.031735761388753336 
-0.1025748319012313 0 0.031735761388753336 
-0.2804580453925643 -0.14405799933055741 0.23642464941877128 
-0.1025748319012313 0 0.031735761388753336 
-0.15253907808216516 0.050797602398061713 0.12369586565269282 
-0.1025748319012313 0 0.031735761388753336 
-0.21128384029013314 -0.26472240165240379 0.17494172707588809 
-0.083807581599802242 -0.13071306550118547 -0.09592138738988025 
0.63058861047123893 -0.014066347612130943 -0.81955721060315001 
0.074009348218721502 -0.74766126462165239 0.23401425581029861 
0.0079391709681745568 0.023865892870429898 -0.033989304266591552 
0.16361203625519694 0 -0.41293740423102615 
-0.22041685599727104 0.014888838401355763 0.071691273424946717 
-0.14881209851034527 -0.48460133579272829 0.35523288587456503 
-0.0087552926183037047 -0.07834381143369272 0.05849859601475748 
0.49654987786888971 -0.25395952602608768 -0.37807435388607341 
-0.32755385599221382 -0.21743372443975492 0.29020937192870799 
0.17292217593914438 -0.45592053123160375 -0.10503049694001379 
0.26468295369190231 -0.62826218100292341 0.034827387094362387 
-0.67070666247130839 1.1167701786197417 -0.23891422034497192 
0.063185694937815201 0 -0.40668058941918617 
-0.081392633369475484 0.43376585632160514 -0.41848277781710203 
0.005447495199798074 -0.11320337936773146 0.070396655421027077 
-0.063901580636707048 0.11712961215291298 0.11406983746763631 
0.29822038140547907 0.010500395991108302 -0.18997146712105681 
-0.27587982741663258 1.0807359654634421 -1.2278830396889902 
-0.035673029147352653 -0.46795837003451979 0.42904209819337019 
0.17497073779055244 0.07473429237596263 -0.23019684637594151 
-0.082504851771657992 0.059696587752494999 -0.5770919256349234 
-0.36466154090441943 0.57679567613804938 -0.032827988037558035 
-0.20437419461927828 -0.21733125378588533 0.29834189763859698 
0 -0.15776089135234891 0.23774760926612806 
-0.58454155508545513 0.6185218996437063 -0.21914450066065028 
0.098292081631146749 -0.16046645317721905 -0.19542467376092831 
0 -0.15776089135234891 0.23774760926612806 
0 -0.15776089135234891 0.23774760926612806 
0 0 1.0031114270939358e-17 
-0.31890179072022867 -0.43685929814363639 0.57520617044250588 
-0.50876694777406917 -0.83831944273090764 1.0875318916428838 
0 0 1.0031114270939358e-17 
0 0 1.0031114270939358e-17 
-0.37040293679897579 0.47285308374931234 -0.19788095151401039 
-0.086304124363593901 -0.58133130635421781 0.54197238015521854 
-0.049099961901219062 -0.37515184438505256 0.19170884748416051 
0.36982642226351609 -0.059962352709282962 -0.54542936020965205 
0.32827023934017213 -0.68009875803175446 -0.047271226220413111 
-0.11193140430095197 0 0.161145647001048 
-0.0099330143567981036 -0.14647919120987349 0.14003130251211532 
0.32880981774816148 0 -0.2987611436259005 
0.63964857403380637 -0.18097796236476799 -0.62272205279833759 
-0.19060098103026069 -0.025763560656677943 -0.097318853722936 
0.32880981774816148 0 -0.2987611436259005 
0.21321287600057606 -0.089821378015717379 -0.1199040403656691 
-0.35509424631338293 -2.7755575615628914e-17 0.22587127351361413 
-0.2459034761654208 0.94669295474995174 -1.0306281161736268 
0.62077973648440077 -0.79112545360859898 -0.20546505113027361 
-0.50966882664012148 0.95290359202420294 -0.30739672140973467 
-0.62390654032517689 -0.25408706674651194 0.57512635774343035 
-0.058526984411385569 1.024572873529868 -1.3787419394875697 
-0.015379148831873529 -0.095679653599995043 0.080975910632243062 
-1.2334468981709583 -0.37100046739080755 0.90671481805135057 
-0.27761511952356538 -0.44187477538026726 0.79493497013078152 
-0.8046670203458981 -0.62952257406691681 1.9433578892458783 
0.68510072029135838 0.11133227836230884 -0.83995963417138853 
0.25420274114489577 -0.51268722407524869 -0.042401721928999603 
-0.54654543720955595 0.0032878712299169166 0.85077400052212315 
0.26677800225356751 -0.09129608809638394 -0.19074773450487437 
-0.3582224567932154 -0.1949528119211322 0.33607298077616693 
-0.24744004546145343 0 0.1203589919965925 
0.65237050155509879 -0.18695332363117573 -0.6386108534763304 
0.012234400722898402 0.40813233299219243 -0.54170513202317294 
0.48224399785858557 -0.061915277755419065 -0.44062050890810783 
-0.16938247859439381 0 -0.2335912869828739 
-0.45320159030031071 -0.43739037735801056 0.79414200889718012 
0.19119586338876715 -0.41339290605048151 -0.021765268046823712 
-0.24744004546145343 0 0.1203589919965925 
-0.24744004546145343 0 0.1203589919965925 
-0.24744004546145343 0 0.1203589919965925 
-0.24744004546145343 0 0.1203589919965925 
-0.16662038006847818 -0.56735473308814799 1.0828940641634395 
-0.52795591852856849 -0.34805447138132639 0.58273151545817814 
-0.25368868030218705 0 0.18705559166962629 
0.63493287183704794 -0.50434826267637245 -0.62010219335378192 
0.051480337787930208 2.0816681711721685e-17 0.017867378903504792 
0.10322463598072584 -0.62399758504697245 -0.0052691739429949307 
-0.18200967071195831 0.58532376809499786 -0.21323346902244078 
-0.43684083119399064 -0.16553130051646259 0.42180327413758067 
-0.0056105918838351221 -0.16222356352735945 0.072659832644437816 
0 0 0 
0.16663221938684891 -0.0090438979268954445 0 
-0.53968648383016915 0.34983745601778637 0.35536680022074046 
0 0 0 
0 0 0 
0.13948179643170572 0.094224086781503555 -0.20299923398807646 
0 0 0 
0.26535790370307394 -0.71460441205948511 -0.077960316325361337 
0.29032554053924237 0.394651623895938 -0.40794076071149565 
0.069433205587229901 -0.22979167108414383 0.2691001067391845 
-0.060133780673741075 0.24615542275899924 0.18740237760557252 
0.78458817880998333 0 -1.1195453622084166 
-0.57032990519367843 -0.22301563845819014 0.38081507871466047 
-0.22075920557372153 -0.062175766234208799 0.038513455135197106 
-0.59226856770361502 0.16111261414123274 0.6497508077639278 
-0.16598889617218351 0.16097375827611946 -0.011941590974129281 
-0.01004024420820976 0.16037606209726385 -0.14987883028600896 
-0.16598889617218351 0.16097375827611946 -0.011941590974129281 
-0.16598889617218351 0.16097375827611946 -0.011941590974129281 
-0.16598889617218351 0.15649223153726213 -0.0642900843143316 
-0.16598889617218351 0.16097375827611946 -0.011941590974129281 
-0.16598889617218351 0.16097375827611946 -0.011941590974129281 
-0.16598889617218351 0.16097375827611946 -0.011941590974129281 
-0.16598889617218351 0.16097375827611946 -0.011941590974129281 
-0.26258281074219164 0.040364103960099082 0.15085328671316733 
0.1457104378572176 0.21400496950403852 -0.41556631243056003 
-0.16598889617218351 0.16097375827611946 -0.011941590974129281 
-0.16598889617218351 0.16097375827611946 -0.011941590974129281 
-0.046690140587799876 -0.0082617854059739947 0.20460877385311113 
-0.43368917685179209 0.027626353682254107 0.26535793578033978 
0.51685681123585947 -0.052137595703556638 -0.35751324047567834 
0.030675478006053539 -0.071412654595307559 -0.11167023511126314 
0.49771413833885536 3.4694469519536142e-18 -0.16835826720943212 
0.28889529652383261 0.06970681564723083 -0.67531845946017544 
-0.20222059345910254 -0.40842694943653352 0.57987021942377459 
0.10246049422419726 -0.22121996033663371 0.002784719039020308 
-0.0093007262229502542 0 -0.13175058743689674 
-0.0093007262229502542 0 -0.13175058743689674 
-1.0822769137933406 0.03228624247704838 0.88209583513804535 
-0.04169925486843732 0 0.43848676294361821 
-0.04169925486843732 0 0.43848676294361821 
-0.10462835234910789 -0.44399557510294546 0.087929017472042584 
-0.31530809603034871 -0.17863082082794418 0.27918036837931198 
-0.11780079727622988 -0.50235077538142758 0.27783765329193327 
-0.059105054904071148 0 0.23001820835489487 
-0.30026673694820233 -0.22636383200072971 0.64194959583720645 
0.1806871884347212 -0.20643369701787434 -0.12637570613759308 
-0.059105054904071148 0 0.23001820835489487 
0.20790537378166959 0.016070913701432391 -0.1414580804958693 
-0.13025296846914602 -0.31612007379384854 0.36840045349863892 
0.3126072297670206 -0.076725001655394406 -0.34099078786835357 
-0.36899450878009077 0.13079035393636762 0.36054162710040916 
-0.0038285887477019129 0.00044172522006077908 -0.023358468902434423 
-0.55681636434068416 -0.30589491863612789 1.0160941777571781 
-0.089255559366299766 -0.045652273540496294 -0.034089804489555543 
0.066495650343183041 -0.28971337867417229 0.36716545789319704 
0.57905736901464655 -0.01281333781408483 -0.61614959980725492 
0.038434237006963634 -0.23929870641824807 0.13859877556237288 
-0.18759999522796902 -0.29631843227031229 0.36056573484287036 
0.30174110103366653 -0.018210780786673892 -0.43398669120929323 
0.81495115372178784 -0.01281333781408483 -0.7086758679324936 
-0.081802369598417218 -0.17339835327775416 0.086699928444323796 
-0.46713060068580203 0.079365988485669239 0.32304085216580813 
0.23721896733377554 -0.027144563174824145 0.07940759596511808 
-0.16192187278894885 0 0.39979522035192294 
-0.70600113766619499 0.4465161013377883 0.31790762607022749 
-0.27251859887618068 -0.19446200153320045 0.18449600079691061 
-0.52055252178408373 0 0.51863379664865517 
0.0081990792061710036 -0.36860315818683081 0.20180804026991286 
-1.3233973848921077 1.3741668126200164 -0.56695439037464057 
0 0.1967158820392077 -0.65620049917178014 
-0.10007800086749491 0.51600987609531357 -0.24707768841378638 
0.91467088580624845 -0.69681880139281638 -0.94408286832890764 
0.36770259239826497 -0.34171772823999685 -0.20697533365877568 
0.001220756774850761 -0.043746202889971199 0.12441268080050646 
-0.29752659334106157 -0.018611209939961654 0.2536189856797737 
0.31098631024014561 0.41874900961135864 -0.689184295799247 
0.322445287683505 0.56679311762749252 -0.79125602334731671 
0.3059100049954589 -0.0070658193495721638 -0.25784459488652223 
-0.26257253562760891 0.34233631658124491 0 
0.068539074364033378 -0.087162082947333103 0.050576729646403924 
-0.061081686736144607 -0.076259722731304047 0.1454474325418415 
0.039363687490327585 0.26439470198833226 -0.18466792266687676 
-0.061081686736144607 -0.16600370661462049 0.14749297752319096 
-0.061692242866966167 -0.41097107968761437 0.2768323302857324 
-0.061081686736144621 -0.076259722731304019 0.14544743254184153 
-0.057177578949748141 0.49256872972500965 0.03463549097733179 
0.23086501338113469 -0.076259722731304005 -0.18778800554026184 
0.46579593268493541 -0.33564143814496494 -0.26125843412196964 
-0.5521862948936771 -0.69871173458507285 0.91285024051993746 
-0.58341571166239603 -0.30590270955787929 0.95846533957046076 
-0.078928558881981511 -0.03731895343583784 0.043261447596604927 
0.11382858047559577 0.39448855576324093 -0.72066650060419024 
0.85168422127649623 -0.18879881200597134 -0.30603281892961837 
0 -0.0076871837846341539 0.025495810773772755 
0 -0.0076871837846341539 0.025495810773772755 
0 -0.0076871837846341539 0.025495810773772755 
0 -0.0076871837846341539 0.025495810773772755 
-0.18585956849968013 -0.0076871837846341539 0.029848941565349164 
0 -0.0076871837846341539 0.025495810773772755 
-0.99120466262457452 0 1.2720906550153734 
-1.028470730987562 -0.043503182694124655 1.2720906550153737 
-0.20457687925515688 -0.053408286249290358 0.14864687370851043 
-0.65312515016007133 0.44636701463146677 -0.06410034199986038 
-0.99120466262457452 -0.015774814713406464 1.2720906550153734 
-0.1060351451783418 0.3328669416913963 -0.12335202055079041 
-0.29010537130027675 -0.46566525540921477 0.73649604890036158 
-0.23816988444177431 -0.1103998630874454 -0.16894989176177769 
0 0 0 
0.12617608111603379 -0.23615940843734073 -0.062134114879271396 
-0.3996679482103534 0.36761564929822443 0.018927692934622223 
-0.37748605070208358 0.32942223199526194 0 
-1.0619575567196406 -0.1183161556740156 1.0713949592917202 
-0.12704656120288851 -0.24832821477359804 0.096408378275297066 
0 0 0 
0.061086043320986876 -0.50836388084406503 0.35088186279227196 
0 0 0 
-0.073217556634410763 -0.44487648037686434 0.32660919972741986 
-0.19767959864137832 -0.089535723248341928 0.35924865705978259 
0 0 0 
0.3959301020632347 -0.59694965715077331 0.20194564943141266 
0.78036297377480868 -0.31423634126299649 -0.33467663149879012 
-0.6897984834015789 0 0.70494318751769947 
-0.6897984834015789 0 0.70494318751769947 
-0.56491649208949202 0.1551445798170849 0.07881048957308795 
1.0360044966512663 -0.29521665339092196 -0.8708010760779662 
-0.019863758024043773 -0.53794502511726883 0.25233456061817017 
-0.15095160123417481 0 0.13635390358293778 
0.67309949878644049 -0.75080938119956964 -0.42843352317328393 
-0.26843937459450701 -0.24339767417156569 0.11477560209304005 
-0.43386712017130735 0.017986784459580782 0.14216358169839219 
0.63711692926029362 -0.22081522550772656 -0.077768632284644937 
-0.30616910867167446 -0.086219264052247099 0.27730316968694052 
-0.16272839210314205 0.096551252416902364 0.094605922494659281 
-0.20667550807519927 0 0.22530117107852932 
0 0 0 
0 0 0 
0 0 0 
4.7502881077931701e-18 -0.62033813261805715 0.2853228064181943 
0 0 0 
-0.089848444846689787 0.20775791542131727 -0.2374191496162176 
-0.18546149510666887 -0.50215849669222157 0.17304327938787226 
-0.2713867379992746 0.5914304954902323 -0.39356576119378656 
-0.17404513519520462 -0.10582987300605881 0.3046286129434852 
-0.4428720372619328 -0.036518265239250045 0.52915008424300303 
-0.44287203726193269 0 0.51224501853221438 
-0.1958381278453476 0.0099739532369996064 0.092740804186794451 
0.62318036063086024 -0.27193081287242094 -0.52470517913757364 
0.27064122588892486 0.34808280532317504 -0.27872894316918739 
-0.077604728470933387 -0.1085557520662723 0.065673823578868862 
0 0 0 
-0.13026643097550195 -0.50277361404296184 0.15777847429936337 
1.8249370745430733 0 -1.7866997602370851 
0.10909555969304652 0.026596861202825291 -0.016821230465738166 
-0.43476316021328515 -0.21127819002334111 0.48940973487323181 
0.49545189868132339 -0.091539828515596 -0.37491961493119902 
0.064583882073376245 0.55171039644593634 -0.62724139425184511 
1.216987467588156 -0.71347276269145987 -0.94539630604690417 
0.16990673914829338 -0.64339188395857461 0.077209284205298614 
1.6276289966710618 -0.024654347723127339 -1.4154905373182507 
0 0 0 
0.38194585489345834 0.22620436614822598 -0.44852675661506364 
0.2799314743784142 -0.10099809688838088 -0.42645692328862833 
-0.066498435359017879 0.21717329789556125 -0.14844448309255737 
0.23322990802810897 -0.26846222358369476 -0.13895783868567957 
-0.051303129059532188 -0.0030194949038463165 0.0071908259596948892 
0.8126813103014594 -0.75345369747107327 -0.529911701101069 
0.42524838419206396 -0.40857027881826974 -0.58105133596603475 
0.52549261769776645 -0.35466837245222188 -0.25099080502739401 
-0.76571795020945066 -0.45286599845707043 0.67083498967677768 
0.086495118504887364 0 -0.41318362642127232 
0.31180928691018273 0 -0.10442624663383544 
-0.14791827547096725 0.37473809859018042 -0.0320506095967346 
0.30423546376663718 0.13029642665701879 -0.28538068938816868 
0.43195805957149924 -0.23515063171330791 -0.16568967216765637 
0.11339181346495858 0.090748260411177284 -0.0059034081903081856 
0.46339378711272694 -0.04986571710598544 -0.31394871405058816 
-0.60158103015324971 1.2592218806573667 -0.42221129086445125 
0.43495816630644007 -0.035832015062312282 -0.40274133142927993 
-0.13788045951489211 -0.54920361049415278 0.19769545959410906 
-0.34849343424249002 -0.12067282408869476 0.23254713444632019 
0.47575501207068727 -0.30053068535656358 -0.31027141968560812 
-0.038398322871300558 -0.035832015062312282 0.15208566853011474 
-0.34641207247748756 -0.035832015062312275 0.38910820027965576 
-0.34641207247748756 -0.035832015062312275 0.38910820027965576 
-0.34641207247748756 -0.035832015062312275 0.38910820027965576 
-0.28838794879693069 0.11424271947201854 -0.0022189139489336646 
-0.16962494381179824 1.0212671217175213 -0.99397817625139839 
-0.26925128589625497 0.26019654395965097 -0.39177179650133559 
0.10074959291762524 0.28795331986756673 -0.37819779550651639 
-0.23769387475892353 -0.077220405010020851 0.44249326193951888 
-0.26511168661203705 0.027681550325512352 0.23093864211096568 
-0.38543082469564199 0.46241412690430028 -0.39177179650133565 
0.23917166285070873 -0.12932454893408701 -0.13622346184353379 
-1.3140318923337893 -0.0053026828040057131 1.0775179991108188 
-0.052698646363623904 -8.6736173798840355e-19 0.12620417615561513 
0.20543063627674732 0.093422604067176937 0.049515306767859688 
0.28450836482567204 -0.080661567568455855 -0.026586289292006484 
-0.075873356807118375 -0.28367943085017694 0.031877849138374374 
0 0 0 
0 0 0 
-0.05002835265701832 0.49527030890910662 -0.3048250687728925 
-0.5526341061543637 -0.64258219135148165 0.98631231250053475 
1.0563671385827518 0 -0.8470756307137185 
0.013385303542241777 0.03135993630105216 -0.18906336703483925 
0.11923359031002494 -0.85321523886243733 0.36911284506200998 
0.39637749815235496 0.23536881447964056 -0.96849497700912179 
0.51508996901308524 0.32227642143518997 -0.67552592557165148 
-0.22066295958359922 0 0.30016618618376484 
-0.20840332237004511 0.165342799338484 0.41706521387056422 
0.7041134947257176 -0.044591335512058371 -0.52810016437699681 
0.5457995063593255 0 -0.17346129720316156 
0.098608789673471586 -0.35891794197672455 0.18108270809025695 
-0.38595539615768121 0.17010982418859746 -0.035230768718061418 
-0.24665993229510219 -0.20853892303417787 0.27571894303575878 
-0.30360179738503568 -0.30450842705650233 0.56434040365063087 
-0.75728356687734666 -0.043649510865882528 0.61693253039845986 
-0.28055815771236081 -0.25771207509454847 0.2381969535025989 
-0.17877964633117446 0.5105858841977482 -0.4297886586533019 
-0.35595331277180925 -0.44124610953671173 0.25860930878245264 
0.55063401528873168 0 -0.4297886586533019 
-0.42547797947459431 -0.1458305479542511 0.31118939275137064 
0 0.10733603596311322 -0.1344497569289515 
0.10882109353412048 -0.024329870336484004 -0.31692138070067349 
0.013924406853548893 0.24305850681029101 -0.12229747801324198 
0.19280162988187738 -0.3527568831938418 -0.042786511851532816 
0 0.10733603596311322 -0.1344497569289515 
-0.78317236949497215 -0.45272367756909476 0.41627014707967336 
0.10184076392298037 0.073404695116251889 -0.13444975692895159 
0.32146937496493655 -0.026276674358534129 -0.18103335606253193 
-0.058584169632138847 -0.55047696448337846 0.0126035729504669 
0.30636045991155347 -0.064891122814320981 -0.14449152107893962 
0.51572054601696316 -0.4139784219259689 -0.14449152107893959 
0.30636045991155347 -0.064891122814320981 -0.14449152107893962 
0.054500969601536081 -0.13241750918886752 0.22062909814992288 
0.30636045991155347 -0.064891122814320981 -0.14449152107893962 
0.046601567104063636 0.020923640287023884 -0.036015446593273881 
0.30636045991155347 -0.064891122814320981 -0.14449152107893962 
0.16395581071841447 0 -0.17576261077844169 
0.16395581071841447 0 -0.17576261077844169 
0.16395581071841447 0 -0.17576261077844169 
-0.62668232242206534 -0.29953524573662438 0.85904439270718758 
-0.17489360432403286 -0.023490362146218559 0.29777985599199958 
-0.45575101106726612 0 0.40582911105866032 
-0.45575101106726612 0 0.40582911105866032 
0.24038984245797423 -0.10261560916024395 -0.12849410891326649 
-0.45575101106726618 0 0.40582911105866037 
0.2972704464010642 -0.2966680984932536 -0.18187467519762496 
0.49733040413046414 -0.2966680984932536 -0.22632498465518855 
0.16927940725062346 -0.2966680984932536 0 
0.16424999122450601 -0.26719457162475624 -0.38639906494508092 
0.057568744898299905 -0.20621748893486552 0.033564345403132301 
0 1.7347234759768071e-18 0.038041836465175394 
-0.11060905084922701 0.54685596292439076 -0.27425598255299166 
0.0082621691513479756 -0.15805354203827907 0.46459757108531191 
0 0 0.03804183646517538 
0.32175707212429522 0.063331227755150821 -0.42518338046118259 
0 0 0.03804183646517538 
0 0 0.03804183646517538 
-0.228833149620218 0.22864643215959618 0.1149572383568485 
-0.058765482399458294 -0.042117169838392254 -0.30139306273081201 
-0.2113919642058022 0.17989530570481665 0.03804183646517538 
0.80831490872803091 0.20185604885163994 -0.89275759323082893 
0 0 0 
-0.29595745940577978 0.078136166899295895 0.27119363260613805 
-0.20685462971778248 -0.39780719844233503 0.14342818615019162 
-0.78515319301565556 -0.19404810458322108 0.62382613387300945 
1.3560968226259231 -0.35928396082494934 -0.74859929735806419 
-0.78325337574652376 0.098382298207139285 0.43979171198558847 
-0.31911514577369893 0.49151726819667618 0.064497871341746518 
-0.61426817960903357 -0.17669897083864528 0.39536854144012978 
0 0 0 
0.47717803342529752 -0.13987214395856321 -0.42546611258831379 
0.034129957893650816 0.083431539158757978 -0.14598646975867863 
0.16177338911825903 -0.27703435699396189 0.0090111087624667931 
0 0.13857576556682247 0 
0.029678617450485185 -0.46838540849209348 0.36239324865253186 
0.22991845928972979 -6.5052130349130266e-18 -0.38054141013715265 
0.22991845928972979 0 -0.17669895165600424 
0.22991845928972979 0 -0.17669895165600424 
0.22991845928972979 0 -0.17669895165600424 
-0.17916654855506528 -0.091580767172725008 0.060454359082201009 
0.22991845928972979 0 -0.17669895165600424 
0.069841277926981776 1.7347234759768071e-18 -0.17669895165600424 
0.22991845928972979 0 -0.17669895165600424 
0.22991845928972979 0 -0.17669895165600424 
0 0 0 
0 0 0 
0 0 0 
-0.39135557146373151 -0.096803320576602847 0.3043981680860891 
0.56940045609999945 -0.79236793389180948 -0.049583491255742719 
0.031303945895423076 -0.17697613954114438 0.17623980372551107 
-0.58676770547865176 0.1473043177070894 0.1844356535828206 
-0.023123658857299719 0.59534882057814409 -0.52771076931613525 
0.96536099911811146 0 -0.6843300181449895 
-0.51875887208089488 -0.079949283853671685 0.12842501311784291 
0.11352401379697791 -0.26463116592115987 -0.043274458732468928 
-0.17297726120653548 -6.9388939039072284e-18 0.16745730826275496 
-0.51388082939021706 -0.21015640095433485 0.64751648082570901 
0.20631891021412008 0.12712848340960015 -0.26125004523600204 
0.20631891021412008 0.12712848340960015 -0.26125004523600204 
-0.35542671928024894 -0.12901831287114546 0.22958122613579698 
0.20631891021412008 0.079401691815033731 -0.20374496753423543 
-0.46599652694699045 0.58996337568661994 -0.030575576794753968 
-0.45139558820374143 -0.079688283781652353 0.40513869072176073 
0.0188788142778963 -0.25487661028102293 0.058565433672552993 
-0.28960419178575092 -1.3877787807814457e-17 0.50336852654899755 
-0.70548392336319332 0.26922406711361346 0.41105146011232424 
0 0 0 
0.054825301423197616 -0.040068556497196248 -0.16325181958279622 
-0.3381241181644693 -0.49790852054530199 0.54085186113411965 
0 0 0 
0 0 0 
-0.72012078476522801 0.38482932063799236 0.29242127366125997 
0.39298063023493379 -0.16074662868757972 -0.16859672582321794 
-0.62455145679514013 0.21035546747611511 0.19439800038584304 
0 0 0 
-0.021244168983414372 0.14573724309921132 -0.099355612806443117 
-0.45546451227063495 0.13584922867368548 0.2314559072853791 
-0.61046492658225604 -0.2885850485797733 1.0210938718170071 
-0.03434397896459828 0.30003716059676494 -0.35658250711151462 
-0.096565514320694545 -0.20112703952461591 0.29765649731127175 
0.024184598308784763 -0.62139339244588798 0.05688317550105549 
-0.54374327953597201 -0.22063944163485505 0.63913542419378599 
-0.03434397896459828 0 0.20245828876198974 
-0.31851439264153886 0.17499597679398471 0.040158615985665912 
-0.48579233452136567 -0.10078424555491149 0.49751846596293475 
-0.23062679623629484 -0.3208941218362692 0.36999144589143423 
0.074804646359955956 0 -0.078450593093503482 
0.08740589904930815 0.1352784383187898 -0.19707700855518456 
0.21533157767690103 -0.0059745837387523322 -0.20538203378844108 
0.896454912811946 -0.92747216566678947 -0.75855979127457651 
-0.011144420070433555 -0.63210207427153475 0.27341648264998353 
0.12550003560989678 0.099183782337493795 -0.30192954514993597 
0.1328100043467928 -0.44960595334879805 -0.010423008712490597 
-0.60774854533163891 -0.1481530060243284 0.70063332414103729 
-0.039743680924011149 -0.054720393809306621 0.17181683485398166 
-0.039743680924011149 -0.054720393809306621 0.17181683485398166 
-0.51127342583741431 -0.31098565896587432 0.52919887445034752 
-0.87938598307314275 0.66473702121490041 -0.076759612539036737 
-0.5933671061451512 -0.31025033819783088 0.5938231998712914 
0 -0.60346380145444878 0.24715437186553735 
-0.76204575969924981 -0.30546659987122826 0.89355154979312168 
-0.45406506453867096 -0.30546659987122826 0.65665760464689249 
0.60343285185858253 -0.27779069630451314 -0.36400239834168613 
-0.2815973378986536 0.15107548358251782 0.26245267531396355 
0.17299244511086911 -0.35684489050268126 0.49564468525639793 
0.52862290974509063 -0.27779069630451314 0 
0.55998673235721963 0.15043381020633323 -0.7028344041756619 
0.52862290974509063 -0.27779069630451314 0 
-0.26199706953436597 0.83765617149092042 -0.5601934135737161 
-0.25263868531217665 -0.075223201487743807 0.41450642915155816 
-0.39984198031169427 1.4217956368730822 -1.6614172176727295 
-0.029758200369965185 -0.84736553861809005 0.32408838694692393 
-0.033492047345378681 -0.0051255164738549137 0.06897500154238978 
-0.17798202643883104 0.3191121711602794 -0.052238178008800672 
-0.0076449809357104943 -0.006762873079138601 -0.18716317010149219 
0.42342075096058412 -0.20031741973842737 -0.26098914269468432 
0.18065330402556654 0.19180380401651126 -0.32821050052831502 
-0.33667038093809237 -0.23967411740212113 0.48003736146556791 
-0.23074654995992258 -0.23967411740212125 0.34025138358162721 
-0.017056091364757345 0.18756391827798741 -0.31941102549024913 
0.12057096709393465 0.29128372963175841 -0.29514575546813593 
-0.70857333138586298 -0.4151400927489528 1.122582331085171 
0.26120865112332015 -0.28306240274164557 -0.19835191959911477 
-0.02196937764254691 0 0.21045154864186491 
-0.02196937764254691 0 0.21045154864186491 
-0.02196937764254691 0 0.21045154864186491 
-0.32218395688273077 -0.29343709089156422 0.45552075130813924 
-0.54032860706614616 -0.040546881902648227 0.63070843920997943 
-0.11874361479160772 0.19264703256507215 -0.015215712193749807 
0 0.44788566036601535 -0.47685665550289602 
0.37763517622289072 0.18837837300801438 0.043099634600193663 
-0.219781619170555 0.38198577810449935 -0.014784903255521675 
-0.18317691602176192 -0.14370376583257266 0.050189900009186578 
-0.096565706871408391 0.12678113562353327 -0.087615181669431635 
0.3495871502911771 -0.22799521261015457 -0.012947988684865408 
-0.49036766663448872 -0.110818008545168 0.739707030941812 
-0.58690179241245444 -0.075939701301542914 0.43532410129713156 
0.043158953914378843 -0.3354537561138084 -0.21412945132951272 
-0.58964370728861171 -0.60217040419582912 1.0580461855376699 
0.137162979106772 0 -0.3996321756897715 
0.064955874293238666 0.092220074569442589 -0.43148503604495264 
0.137162979106772 0 -0.3996321756897715 
0.42216427553906866 -0.63344900655786951 0.0018892953314571166 
0.31950029307837469 0 -0.41910779312843244 
-0.07475116788623698 -0.67616152153189679 0.4186469762574061 
0.30335659359367639 -0.40640526380520758 -0.049410924098586682 
-0.60890732391732927 -1.7347234759768071e-18 0.54618981786268395 
-0.041864650742722782 -0.060959087770125125 0.0081056667419869173 
0.28329994311461454 0 -0.41274835667668741 
0.48416644383137447 0 -0.9145185562460787 
0 0.57274903414147382 -0.54839958400398137 
-0.7306508925507591 0.071620884249555525 -0.00078355124488862767 
0.42264265301044041 -0.1441668944511813 -0.34485446085566607 
0 0.57274903414147382 -0.54839958400398137 
0 0.57274903414147382 -0.54839958400398137 
-0.8590000379053272 -0.26261398784289725 0.75504828964127746 
0.42811146201290623 -0.06108494961708457 -0.30205692462926048 
-0.30544853177189268 -0.157059819020578 0.73662766380632272 
0 0.57274903414147382 -0.54839958400398137 
-0.4198908316647218 -0.046947116346058679 0.00059444871009654463 
-0.35523798932356976 0.1118006204468905 0 
-0.11709193494209297 0.11180062044689039 -0.088600884168190203 
-0.35523798932356976 0.11180062044689042 0 
-0.10590869431437754 0.72081240312275896 -0.60415725359198247 
-0.6663746062812026 0.51444419730266311 0.40477393836310704 
0.045167289543666 0.075357104274967668 -0.17709237190843982 
-0.21478400687952401 0.2200476787223461 -0.20111495823150408 
0.65216140451142157 -0.27280196606977142 -0.13673816249208443 
-0.089289113818886129 0.19301047307562874 2.6749638055838285e-17 
-0.11504575008393668 -0.31911631022232445 0.23055718451171545 
-0.09666586851572298 0.44842127212869465 -0.23491585290807201 
0.27316935940211445 0.34469477146908828 -0.64926810231817356 
-0.11306553634516864 0.48626671375622271 0 
0.69875988568975178 -0.28313172071115233 -0.77089248426118051 
0.60077174210527007 0 -0.59982804703282011 
-0.026828785932607169 -0.018463928350381964 -0.12915817266204371 
0.034575063011349154 -0.10969210862800562 -0.1130852178747913 
-0.053982712996992782 -0.032253173411199383 0.40819595859733065 
0.38813182207225122 -0.17111437367741705 0.1742645158213707 
-0.22029826464030844 -0.18666961498118514 0.28963266155217871 
-0.23387841778420496 0.11864512680607103 0.21211292092236758 
1.1452032333122706 -0.12169653565222066 -0.96844178117261637 
1.054444928239237 -0.15534182560422519 -1.1006475130306925 
-0.00482378232998679 -0.2954299998731143 0.19496309782428886 
-0.25498548040588775 -0.46220099549076726 0.65961861920159448 
0.29559726014996823 0.27725674909458786 -0.59822886040667522 
-0.0650145875654871 0.2514526767723525 -0.20773112563372825 
0.15854924911027815 4.163336342344337e-17 -0.071433335613938206 
0.12477618024962284 -0.2778691026708256 0.28975121481387256 
-0.1789760393841629 0.07853993095450322 -0.016774617801770367 
-0.05167356249510606 0 0.085454078436692824 
-0.10247782862192355 0.23217804979246406 -0.17837192877900016 
0.28421081712745733 0.014932106667305971 -0.13760373510941259 
-0.28945365133212231 -0.32244751731805776 0.58801213916530481 
0.82052887270850006 -0.3432743711037341 -0.64732383695171658 
0.34321617448641745 -0.07608223650106348 -0.23153667599324476 
-0.63367731561969232 0.0021411797574066842 0.48797087896315156 
0.48939984839057477 -0.1985087386084797 -0.14735275436974435 
-0.58949507448442029 0.1847971145470596 0.31283511268321229 
0.33555100921384756 -0.70492677072072263 0.087617795261773296 
-0.35382501038409819 -0.21477456777603784 0.26578008309403617 
-0.26383599554069148 0.13939897208870392 -0.0031537463810114028 
-0.46493272449337236 0 0.31171000495869705 
-0.43546354761008638 -0.32648892501157817 0.47009139080260964 
0.49226766654151632 -0.034417275178367998 -0.34731464753078417 
-0.53164111869443975 0.15293876113042479 0.21640519367247377 
0.49309038067744709 -0.26766209525602064 -0.65144103648167873 
-0.1441298657870432 0.0303525580397319 -0.042978887970764441 
-0.14675913242014935 -0.26766209525602058 0.26559471936174184 
-0.14705548386209055 0.12495531802988613 -0.047198297147871146 
0.88141184711039511 -0.26766209525602064 -0.85603338304105747 
0 -0.26766209525602064 0 
0.43702037055187343 0.43405000964389029 -0.63683260380853535 
0 0 -0.12967616855406158 
-0.83173400448108181 0.19887723479322594 0.47180155641243382 
-0.33661770367573945 0.65900590313111307 -0.13039130987441738 
0 -0.042916515813029667 0.09101571671199582 
-0.070416425192224102 -0.26628615764422225 -0.015669141348626826 
3.4547549874859419e-18 -0.28661307181839168 0.13854095600127966 
0 -0.065486648679570658 0.11827354366538077 
0.39914780684609491 -0.21069761995563235 -0.31730823432785499 
-0.43666898674380317 0.052850609341914961 0.44318411707139471 
3.4547549874859419e-18 -0.06548664867957063 0.11827354366538077 
3.4547549874859419e-18 -0.06548664867957063 0.11827354366538077 
-0.68040629819248766 0.72571532491027313 -0.032178327751967974 
0 -0.042916515813029667 0.09101571671199582 
-0.055330021082253121 -0.068982597165888296 0.0029624207139005731 
-0.72027233888409348 0.49432939401297593 0.21739576518019507 
0.54474677766688218 -0.57420724097273157 0.17456980851778822 
0.24012881915934975 -0.30806739174007974 -0.01246243243854926 
0 -0.025236394275917257 0 
0 -0.025236394275917257 0 
-0.018520342771031529 -0.1337520170460981 0.030566743334293302 
0.29944625854576096 0.32207511669558053 -0.32694306704038911 
0 -0.025236394275917257 0 
-0.077490170659181248 -0.025236394275917257 0.17096723830745786 
0 -0.025236394275917257 0 
0.15222458155015808 -1.0408340855860843e-17 -0.28437862258225971 
-0.02962346441017329 0.332910775709582 -0.74501539568403286 
0.19422452244507471 -1.0522750723932133 0.80539491513228501 
0.19422452244507482 0 -0.25251561619539092 
0.19422452244507482 0 -0.25251561619539092 
0.074180368599781943 -0.4278908983893086 0.0060041443104025911 
0.13387307496676135 -0.11001176114743788 0.15957392276499646 
0.19422452244507482 0 -0.25251561619539092 
0 0 0 
0.45997342918302792 -0.53010053660670831 -0.067995477637982291 
0 0 0 
0.37365713527292799 -0.35411429257257565 -0.419338771176821 
-0.18970229719840168 -1.7347234759768071e-18 0.0087019613635201717 
-0.93973748299508297 -0.57169834363447236 1.2641149679785624 
-0.022633614536334085 0 0.0087019613635201786 
0.29180313777854833 0 -0.29527369783253321 
-0.022633614536334085 0 0.0087019613635201786 
-0.034250924333799254 -0.27098730243298097 0.2335150232310774 
0.60685725405282398 -0.24903271729092546 -0.28993601028922622 
0.047642368925752139 -0.20544993464288275 0.15206023365762808 
-0.66181228318654639 0.1440908959533731 0.20586967751458971 
-0.07279875374827878 0.49808864512865142 -0.66671077738119755 
-0.13899001639004815 0.23071744735676081 -0.12491826158863045 
-0.10680238689082899 0.10123794252437965 -0.013888791418325507 
0.18644838441672304 -0.071817144397771676 -0.40054719786108112 
0.19978476092110861 -0.43324278252428616 0.052131790193863548 
-0.45984609224281531 0 0.91099150074159096 
-0.61566937887649054 0.36016421959940403 0.5437436289738794 
0.010127645768201495 -0.25100704959458986 0.073427776019887897 
-0.29850891187438922 0.029700506046583072 0.1258860987206265 
-0.47356074117028729 -0.34418542271515301 0.4815231726811019 
-1.0951708909658062 0.65840475810439658 0.52722650666769622 
0.15298552882668134 -0.42268874722866046 0.028312844166303489 
-0.38048888374833179 -0.081920488566931959 0.23964773825508479 
-0.04203161168088982 0.10324884948066737 -0.29332993073557945 
-0.057097437102294306 -0.018814744482080981 0.017371137657733612 
-0.44760470284591447 -0.44066118092854051 0.42377648596018408 
-0.064696509551860459 -0.15619915806383788 0.058213898873333544 
-0.32329051621405097 0.32441097136808306 0.30417854189967125 
0 0 0 
-0.56655600738579903 -0.27957683911163578 0.57891254004638182 
0.15548846413836648 -0.50873735983273949 0.093301958111949621 
0 0 0 
-0.033903439718157673 0.32158237019048497 0.017013379599591559 
0.14217736390435165 -0.44138005490517601 0.39180001937812087 
-0.31362586177014123 -0.14770854469031172 0.28828606942533758 
0.064490468147099703 0.1572100925911025 0.24937791613015067 
-0.62679921468278643 0.10541635613963093 0.23859920047113675 
-0.0031114114854776248 -0.044740477909867238 -0.13757798891808173 
0 0 0 
0.59841488524588016 -0.14931975652474275 -0.95893512748315735 
0.28421594585105686 -0.39466297909957121 -0.24740114993446688 
-0.20638364450999397 0.10333194277314225 0.098942094262321048 
0 0 0 
-0.18832989904053721 0.11321014349451038 0.22334104701518787 
-0.14083837335358465 -0.025088642112387601 -0.030804913556688664 
0 0.35149772681977431 -0.47985807218819188 
-0.19818323096497992 0.05665047715277817 -0.21161729330357237 
-0.12880343896516164 0.047411279209203558 0.027901190378780517 
0 0.35149772681977431 -0.47985807218819188 
-0.1894381687331908 0.36439873599604389 -0.21824712427861948 
0.18088371158258307 -0.20003873016220416 0.08343769115150429 
0.796394216824721 -0.62140917327401124 -0.27548433886671231 
0 0 0 
0 0 0 
0 0 0 
-0.22676185848891833 0 0.030820111423143545 
0.83137932086792909 -0.064760324176671449 -0.4071875884930603 
-0.17627016140998256 5.2041704279304213e-18 0.34191465964761986 
0.21206500040589837 0.24520033875715769 -0.10859188416354956 
0.7600355455428891 -0.40539019104565133 -0.430948261855925 
-0.12229516206102999 -0.49468700677599536 0.11155007623150251 
-0.99150968141705653 -0.6266604097484384 1.2594989530095635 
0.93935546764103517 0 -0.40103960566113461 
0.58572366713165824 -0.018625091436402202 -0.76832784340875904 
-0.2786780384552377 0.29335908803602628 -0.026702660928950264 
0.63605062242111277 -0.45256689634147279 -0.19469100993755453 
-0.78100114459401493 0.72077233635688975 -0.36799854018156797 
0.16680434596840396 -0.11334767989986086 0.14637064392137805 
0.33934934954384116 0.19044305114506777 -0.49367428183432061 
0.10843735524958802 0.041681019129069137 -0.064600382346876775 
-0.25765424471478887 -0.4083028021833488 0.26883301472213089 
-0.24090986454643284 0.20530520217121512 0.25387213100173212 
0 0.2305621451415785 -0.25453735811090306 
0.16489973866350355 0.1672303985890469 -0.04744279201695592 
0.17175456717267468 -0.17594734172650286 -0.068422247975584174 
-0.15242143444100695 0.13067557510988362 -0.15934295332721493 
-0.75743496978559688 0.97553037783712448 0.045707143113085602 
0.0029041436714352087 -0.096817874434347528 0.11921856645940608 
0.43308445318321559 0.24093905117541942 -0.62775538173916379 
0.076418032799842189 0.37223049092090432 -0.70703426631071042 
0.070799824593058697 0.48842896139494568 -0.46535191747095578 
-0.2336306242599496 0.30685918137057833 -0.039952086476411165 
-0.31995686616737107 -0.3661437634186282 -0.060185213558288236 
-0.31658536761421191 -0.068037440505618413 0.35382875489107857 
0 -0.19494905855048608 0.17142662032096456 
-0.22172525155406003 -0.11412102652927876 0.15073139749805611 
0 -0.19494905855048608 0.17142662032096456 
0 -0.19494905855048608 0.17142662032096456 
0.060093321620994081 0.37437060718573167 -0.16757334517825812 
0.75679919784083849 -0.22926385080768535 -0.72756736187089732 
-0.26281821137546602 0.14087343805432245 0.11891375020637204 
-0.59631955375735102 0.88292942128740259 -0.81016980855531329 
0.43907121585961201 -0.2596784490109264 -0.73270708170597676 
0.14554556362025184 -0.11897593155617392 -0.36769257210903039 
-0.42671397737773836 0.36134953707681416 -0.010508581841998424 
0 0 0 
-0.044140518494852947 0.32824239686454154 -0.24934929884253854 
0.012778611893369655 0 0.01665920341819763 
-0.32162048350335387 0 0.59605497006836061 
0.7089746730841392 0.20484726181078694 -0.95868821543495819 
-0.32204437165879862 -0.61245510884585586 0.12184958795926831 
0.32613446213653829 -0.12895673137561664 -0.27208360544818988 
-0.31571631045943332 0.21213175512623123 0.74683151911037315 
-0.012932879532031991 0.72036780913987042 -1.0619061111020327 
0 0 0 
-1.0601479846273381 0.29920222956066395 0.54058526450797906 
0.027390219874993574 -0.39731340645809121 0.035049152628606632 
-0.18146878946444869 -0.18091191220669525 0.16345080114542104 
0 0 0 
-0.24118939804927686 0 0.24191316554784972 
-0.40520971912744097 0 0.16976818242396033 
0.84334766647097481 -0.29798748509179818 -0.73169024686192641 
-0.43521600319407433 -0.83649803133589296 0.91333481150886719 
0.14157304716855479 -0.13871948737767012 -0.10964265783761691 
0.31079679114365227 0 -0.36727318881951038 
0.0062847386603500019 -0.29794619209890394 0.1487300357066848 
0.31079679114365227 0 -0.36727318881951038 
0.31079679114365227 0 -0.36727318881951038 
-0.014922029297617635 -0.11933842172600397 0.030448930645677517 
-0.31097664925300111 -0.088278498862012583 0.26924229068487276 
0.093013426711064301 -0.30214621019984667 0.19817693634286657 
-0.35013969695365615 -0.017830097008548439 0.3828449484407781 
0.24856465985349058 -0.23482660189944532 -0.18181235040311464 
-0.60019109617834709 0.28382116005610569 0.47529213542777005 
-0.39997643513503889 -0.017830097008548436 0.52499315206106623 
-0.0016389635554095814 -0.14122010263648954 0.11888776299830012 
-0.14232860824582241 0.29616051535481369 -0.097974224859109074 
0 0 0.0062533992068482813 
0.44812761799612799 -0.24507965190048445 -0.39049956597031238 
0.15878567812983568 -0.052159818821487756 -0.27542889013053728 
-0.16711166313432058 0 0.0062533992068482744 
0.057175705005893272 0.16952664426565203 -0.19601490628653917 
-0.1652446708891048 -0.23674165821277882 -0.0007063069864213106 
-0.30245821998636585 0.68601790410407149 -0.39654057441585461 
-0.359115718263397 -0.10704999765784649 0.11203930814577133 
-0.35361117134818421 1.1620841919649285 -0.61833472212661189 
0 0 0 
0 0 0 
-1.0256090982657982 1.8448859818465697 -1.7743990761440025 
0.068214848746931969 0.28449040609888693 -0.52410705380725431 
0.22458039413628411 0.20973170298356925 -0.42772752599004155 
0.22055272750377269 -0.11578288813543264 -0.12228951875553436 
0.26675176995269417 0 -0.39405240169561678 
0.26675176995269417 0 -0.28350246494626885 
-0.19140629609295198 -0.31565115149350836 0.53484752567473093 
0.48808222076296387 -0.14899782303186368 -0.39405240169561684 
0.059851174203706482 0.56285425731061423 -0.46597920375605595 
-0.49230104850841327 0.052087479392214218 0.47582675503360616 
0.095191663432701093 -0.11102887217265568 0.22066549824993575 
-0.065564674888930446 -0.23843285280291726 0.32095786390494035 
-0.37793885790323095 0 0.25339373281834959 
0 0 0 
0.65025927107618886 -0.2694094301837468 -0.58302124600624572 
-1.1144063061063685 0.43285975761213585 0.3207421514021816 
-0.12939835478089057 -0.29140077663420422 0.54956723131796104 
-0.23968783391732087 0 0.1414827829121571 
0.12238792821296174 -0.27984736723157844 -0.011768912071781483 
-0.46874813116592784 -0.56704050388037786 0.50493656453892699 
1.0153263729284054 -0.18480783856591868 -0.7807425633804016 
0.4684073905622626 -0.085970071123935163 -0.47442150473877609 
-0.1317688020370546 0 0.11777558845091365 
-0.1317688020370546 0 0.11777558845091365 
-1.0146945015281095 0.38402081428118001 0.51410963451139491 
-0.17044408072481279 0.0083287157817217988 -0.16791193079441077 
0.069175669046615762 0 -0.11839474826814901 
0 0 0 
1.340021734538311 -0.51022127951732132 -0.88808150575337019 
-0.80594660345004798 -0.32149343480143239 0.9037011137146741 
-0.25264972230139615 -0.05464167386619663 0.63348781876589444 
0.015161018184816428 0.36723473610332347 -0.30358661851460594 
-0.16913559434817785 0.057765740652854121 -0.13830435114348441 
-0.16468714494217057 0 0.4953784754949454 
0.21723213153138674 -0.34092605826363248 0.19884051646722184 
0.10615110270990145 -0.17301390473296357 0.15850173136941123 
-0.31797080955048918 0.34236835303175933 -0.041836324209622786 
-0.050036562358397471 -0.20214627269864707 0.073250491475311708 
0.0007654376843142048 0.033257082603201836 1.0031114270939358e-17 
-0.4321457348853972 0.42207416917153784 -0.26092393787950779 
0.41781948097465088 0.11166588955698796 -0.34470720998100984 
-1.0642002840962751e-05 -0.043167909995619584 0.020437791825706028 
-1.0642002840962751e-05 0.03325708260320185 0 
0.619919253259817 -0.09005926934044281 -0.33028611431249766 
-0.66492777409749171 1.1325327866564185 -0.78627512876879402 
-1.0642002840962751e-05 0.03325708260320185 0 
-0.61436431580071582 -0.081817280741454071 0.88014517771317757 
0.45014793438207101 -0.16967216537476459 -0.090623873751416215 
0.21383893219760813 0.026442639109469316 -0.43434677307550956 
-0.092266657105324654 -0.081817280741454099 0.37797406374273146 
-0.56599432590657761 -0.36637730432211391 0.71641189097012958 
-0.030233462197363982 -0.028016019102947983 -0.090773727063382215 
-0.48643235589808187 0.072851653274164874 0.35170383567681873 
-0.48643235589808181 0 0.23220913107727195 
-0.68187283316389835 0.051746757338612698 0.60052042956486973 
-0.40308125964830815 -0.74962557658960327 0.7540662948247504 
-0.13877720876891544 0 0 
-0.13877720876891544 0 0 
-0.13877720876891544 0 0 
-0.0034494782802253739 -0.063473682082573715 0.32666361015431894 
-0.2555071748738304 -0.34030102708825077 0.11070921210327321 
0.33176528387591664 -0.93313244671493223 -0.0010399642718107761 
-0.40313780993741466 -0.11409760809562361 0.066685529713378822 
-0.023511257685338901 -0.065908997632612987 0.29264192186228416 
0.22477154949530748 -0.044627841258818669 -0.1914733420479921 
0.22477154949530748 -0.044627841258818669 -0.1914733420479921 
0.31410395210249303 0.0096520361318492981 0.11743116114953388 
0.22477154949530748 -0.044627841258818669 -0.1914733420479921 
-0.05791672153779142 0.36161751158254235 -0.09672911180651568 
-0.35042809875961267 0.12942261009196984 -0.1117587794415681 
0.23110417890417365 0.17594722685802022 0.041965975046907397 
-0.35042809875961267 0.12942261009196984 -0.1117587794415681 
-0.35042809875961267 0.12942261009196984 -0.1117587794415681 
-0.03315907397076813 -0.080533542679626771 0.056246589802005122 
-0.062043141129678292 0 0.032591014323067075 
-0.062043141129678292 0 0.032591014323067075 
0.090063524779084178 -0.18317243268568376 -0.067010533288888049 
-0.062043141129678292 -0.017756015117445699 0.032591014323067075 
-0.062043141129678292 0 0.032591014323067075 
-0.062043141129678292 0 0.032591014323067075 
-0.062043141129678292 0 0.032591014323067075 
-0.062043141129678292 0 0.032591014323067075 
-0.07323416412680793 -0.0005067654016385545 0.046845253866017046 
0 0 0 
-0.080317209655029337 0 0.038593966219959031 
0.39184750953754771 -0.28198488421662077 -0.14478781506561106 
0 0 0 
0.35169250241587757 0.52779816094611931 -1.0045038765046996 
0.28334045948313968 -0.20057922500753728 -0.018111911013658902 
3.4547549874859419e-18 0 0 
0 0 0 
0 -0.18885777224175887 0.31599012980335178 
-0.1276387412691925 0.069287432147906211 0.1127687680060864 
0.41455336935878584 -0.18885777224175884 -0.27544028723442998 
-0.29976953266295175 -0.46891938632878016 0.83703071096392223 
-0.096938285171368807 -0.13035786416820938 0.42607194001641779 
-0.12330875921740377 -0.11907820633260874 0.48045872852576943 
-0.50238346264579159 -0.092218957147301855 0.30249556152176432 
0 -0.11143354851850848 0 
0.90343165653605428 -0.21646476874957254 -0.59238880111704073 
0 -0.11143354851850848 0 
-0.039572277829539135 0.49452780980583289 -0.18260768139635777 
-0.48221619471864502 0.22069344757205148 0.52493007230686517 
-0.56516228300802129 0.27723907635304273 0.14880422724799058 
-0.30364663798373742 -0.14129938544014847 0.36821482857119481 
-0.30364663798373742 -0.14129938544014847 0.36821482857119481 
-0.30364663798373742 -0.14129938544014847 0.36821482857119481 
-0.28554152193973092 -0.24776709000818273 0.36908433733482837 
-0.2125663971985364 0.39781983572067503 -0.027933536805692143 
-0.065575503723582465 0 0.019876643857342644 
-0.67137456176853461 -0.0083560331043045256 1.3060124773647823 
0 -0.21332846640278888 0 
-0.19729442386381249 -0.19325233656583751 0.24028485442630226 
0 -0.047726791594566262 0.057485905832610346 
0.36474519383218296 -0.34700409142505739 0.057485905832610346 
-0.23607944053728411 -0.047726791594566151 0.15989075331755315 
0.56207274799735263 -0.054318906952544606 -0.53717789222692269 
-0.1632728506245443 0 0.12751052227407828 
-0.1632728506245443 0 0.12751052227407828 
-0.1632728506245443 0 0.12751052227407828 
-0.1632728506245443 0 0.12751052227407828 
-0.1632728506245443 0 0.12751052227407828 
-0.1632728506245443 0 0.12751052227407828 
-0.1632728506245443 0 0.12751052227407828 
-0.2050127816183559 -0.087952792987051304 0.23207404445330079 
-0.2050127816183559 0.30955731552282628 -0.41720873488613536 
-0.2050127816183559 -0.087952792987051304 0.23207404445330079 
-0.2050127816183559 -0.087952792987051304 0.23207404445330079 
0.67974841695996147 -0.022746511424698357 -0.24741390622688672 
0.058617030691749415 0.06396900585107107 0.083302229429467731 
-0.46028254691333415 -0.11241115395866563 0.35505467752313941 
0 -0.12179295954672049 0.11643699148549926 
0 -0.12179295954672049 0.11643699148549926 
-0.18388680183313919 -0.084199025343848308 -0.058457166799176473 
-0.12111420149468985 0.46006518037873478 -0.17345530674955667 
-0.40028357013953347 0.40454986584901664 0 
-0.40028357013953347 0.40454986584901664 0 
0.12871928073850777 0.11615076406210478 -0.38102448192873994 
-0.22066660007973563 0.15275744286995935 -0.022375067031069239 
-0.31598134674069384 0.209932163291176 0.2920329834862464 
-0.40028357013953347 0.40454986584901664 0 
-0.40028357013953347 0.40454986584901664 0 
-0.40028357013953347 0.40454986584901664 0 
-0.065661885751004651 0.37121729991842722 -0.15846640561551781 
-0.087196630653824603 0.51476394453117424 -0.27192194997799485 
0.22647872468590349 -0.1202803590153409 -0.12714877677013142 
-0.1621933050055491 -0.15278492702169877 0.37289786040279549 
-0.046201773099538136 0.53472479398722661 -0.44534712563703555 
0.25074035264767658 0.30371660533150652 -0.49798614340991748 
-0.046201773099538136 0.53472479398722661 -0.44534712563703555 
0.054049837781032263 -0.051649270708574099 0 
-0.17603247880724729 -0.38456126159001519 0.69611743824794847 
0.20320711625328461 -0.26327797608543302 -0.37082833624954148 
0.22403034538116426 0.19206884117509457 -0.38112489272125488 
0.18564479540605186 0.51060791474690037 -0.44671020366478265 
0.31630880742552658 -0.023628488249889106 -0.29041369395640432 
0 0 0 
2.7638039899887535e-17 -0.016708182623354377 -1.3374819027919142e-17 
0.1804372129296796 0.17078271362468403 -0.23848297749047592 
0 -0.13453417240805923 0.23744230108998815 
-0.42653805342352052 -0.3485201187664051 0.91609576135247983 
0.37193686764482548 -0.13453417240805923 -0.040742267011440306 
0.17650422354600795 0.10719180168850143 -0.49474159734161971 
0.27740638488128994 -0.13117720652059206 -0.22811098683482023 
0.084364641229019849 -0.14467145569627235 0.10248497704547316 
0.23337092528979211 -0.094648718702369516 -0.22811098683482023 
-0.42363130712889691 -0.48634142984597362 0.91890106141070771 
-0.3324939363427038 -0.45361018369081685 0.80821536618561729 
-0.13487554721291597 -0.033223728309296811 0.28397833402219053 
-0.11530095047163071 0.035825479489417666 0.014383809057132758 
-0.26589250945483039 -0.0010521983420497261 0.1181942071309285 
-0.37852914432853163 0.75970941768911682 -0.18663947952132331 
-0.69272556992302714 0.30347720295267211 0.38265898566596701 
-0.37852914432853163 0.077256514328877035 -0.095213152120916508 
0.1894335837029136 0.24229198843957334 -0.12021273787334076 
0.069651928130927937 -0.17549482228604954 0.055467074920489537 
-0.0047309664666174145 0.17427287248823956 -0.18436498342556148 
-0.0047309664666174145 0.17427287248823956 -0.18436498342556148 
-0.0095261186718670326 -0.011227955775238524 0.056902901583097056 
